float conv2d_1[56] = {-0.035474285, 0.21608347, -0.042075846, 0.22483177, -0.16906613, 0.30015877, 0.03635627, -5.1268034e-05, 0.19140038, -0.106943555, -0.18999784, -0.27999488, 0.273879, -0.061765626, 0.25357345, 0.111828215, -0.24891746, 0.22354043, -0.11057241, 0.17113584, 0.19753441, -0.29770675, -0.002413834, -0.2513212, -0.057343055, 0.14656144, 0.2377822, 0.27961937, 0.19695632, 0.22328937, -0.13701807, -0.04644284, -0.053747583, 0.0491346, -0.0050567654, 0.08492003, 0.21906823, 0.28367633, -0.15123084, -0.19983578, -0.097539105, -0.14161813, -0.17618531, 0.012079801, 0.0149046825, 0.29862487, -0.144865, -0.10382547, 0.2385256, -0.25938138, 0.009209264, -0.014915072, -0.21625817, 0.02544213, -0.045688514, 0.043924388};

float bias_1[8] = {0.00584563, -0.00043014, -0.00313749,  0.00608471, -0.00106757, 0.00037463,  0.00265493,  0.0098483 };

float batch_normalization_1_gamma[8] = {1.0004913806915283, 1.011184573173523, 1.002280354499817, 1.00088632106781, 0.9984212517738342, 0.9966988563537598, 0.9942525625228882, 0.9971768856048584};

float batch_normalization_1_beta[8] = {-0.0034413665998727083, -0.0019454371649771929, 0.0062063937075436115, -0.013337545096874237, -0.0012660959037020802, 0.00506435614079237, 0.002214641310274601, -0.005435276310890913};

float batch_normalization_1_mean[8] = {0.005431301426142454, -0.0002803152019623667, -0.0035637980327010155, 0.0060457997024059296, -0.001265753642655909, 0.00038590645999647677, 0.0025597524363547564, 0.01019112765789032};

float batch_normalization_1_variance[8] = {0.01494085043668747, 0.010472684167325497, 0.017360268160700798, 0.048365432769060135, 0.009830950759351254, 0.03135175630450249, 0.006882432848215103, 0.01347032468765974};

float conv2d_2[48*8] = { 0.322075188160, -0.235487535596, 0.071466192603, -0.096514746547, 0.306101232767, 0.223736688495, 0.002210536972, -0.306297272444, -0.034453090280, 0.318341970444, -0.082160927355, 0.144027784467, -0.152169167995, 0.300853431225, -0.063260696828, -0.155266389251, -0.247816056013, -0.017513042316, 0.212412357330, 0.208938866854, 0.268207341433, -0.114391170442, 0.131380394101, 0.045015253127, 0.126113280654, -0.215421482921, 0.220802709460, -0.235655546188, -0.078104905784, -0.299623310566, 0.216762706637, 0.212495267391, -0.247322395444, 0.190681561828, -0.308592885733, -0.090923152864, 0.091539472342, 0.102370209992, -0.158393844962, 0.296534538269, -0.329452306032, -0.240274265409, -0.321349322796, 0.177594199777, 0.037365052849, -0.113191612065, -0.033706381917, -0.096880152822, -0.079904593527, 0.227366670966, 0.165776222944, 0.251608759165, -0.259331315756, -0.319309294224, -0.053044892848, -0.062743954360, 0.147884622216, 0.139217615128, -0.166538819671, 0.198491513729, -0.306927710772, 0.298309952021, 0.186135679483, -0.218294382095, -0.128613486886, 0.179596513510, -0.146052151918, 0.211465224624, 0.121559642255, 0.243692293763, 0.303310602903, -0.116680651903, -0.044070024043, -0.233112126589, 0.169005796313, 0.289130866528, -0.227935388684, -0.143936544657, -0.184115856886, 0.281008780003, -0.064917795360, 0.299234420061, -0.315078377724, 0.007781490684, 0.094803817570, -0.114130139351, 0.240568712354, 0.242931321263, 0.150670841336, 0.056150164455, 0.096368901432, 0.004079619423, 0.014125463553, 0.008224845864, -0.086956068873, -0.251728683710, -0.009245625697, 0.067715473473, 0.302377641201, -0.022030398250, 0.173483654857, 0.161888942122, -0.105569124222, -0.126456335187, -0.020161028951, 0.308484643698, 0.081920601428, -0.024572508410, -0.146199941635, -0.223723560572, -0.218058511615, -0.251811027527, 0.328164339066, -0.227569267154, -0.281404465437, -0.018344718963, -0.321676224470, 0.254878252745, 0.113837227225, 0.000017555407, -0.091282069683, 0.111356131732, 0.025358894840, 0.242303848267, -0.191218182445, 0.031736861914, -0.294281542301, 0.089689508080, -0.089390829206, -0.330057829618, 0.152906954288, -0.265515595675, -0.057547222823, -0.140549525619, 0.045327860862, -0.031213615090, -0.167519569397, -0.158280402422, 0.248291715980, 0.141886904836, -0.207361072302, -0.236185610294, 0.120443850756, -0.026498068124, -0.321042507887, -0.072806313634, -0.093254022300, 0.132691949606, -0.039494082332, 0.073374614120, 0.297607839108, 0.075413838029, 0.310551464558, 0.069322288036, 0.131083026528, 0.051734399050, 0.289214670658, 0.190959617496, -0.040356144309, -0.031347256154, -0.028689317405, 0.106114886701, -0.004319250118, -0.228901818395, 0.039069846272, 0.292758822441, 0.000161480042, -0.028619578108, -0.225921660662, -0.275004625320, 0.287126421928, 0.296145439148, -0.045222032815, 0.039335940033, 0.160961493850, 0.315162777901, -0.123414829373, 0.195061117411, 0.259689807892, -0.059588685632, -0.095800973475, 0.299219965935, 0.235125094652, -0.099130704999, 0.242592081428, -0.232997283340, -0.190537393093, 0.083790704608, 0.233945131302, -0.120522670448, -0.035048592836, -0.195524618030, 0.152126520872, 0.015071367845, -0.160297974944, -0.311610192060, -0.150297284126, -0.162685051560, 0.169110149145, 0.299088478088, -0.258691221476, -0.266434133053, -0.259769141674, -0.057962447405, -0.226891547441, -0.197077393532, -0.107580214739, 0.330792188644, -0.226824700832, -0.254554390907, 0.122636459768, -0.097613327205, -0.054467990994, -0.013357307762, 0.060135044158, -0.296168744564, -0.219967335463, -0.287620961666, 0.043074287474, -0.209318101406, 0.167263388634, 0.184142172337, 0.320298463106, 0.302039802074, 0.159664243460, 0.250776261091, -0.204577550292, 0.147755146027, 0.233706235886, -0.335100591183, 0.272954225540, 0.167997047305, 0.267386853695, 0.016338700429, -0.230129942298, 0.028944976628, 0.047559756786, -0.038487434387, 0.133894503117, -0.069588311017, -0.115299470723, -0.319320648909, -0.043994575739, -0.225518494844, -0.037233207375, 0.173801556230, 0.190702229738, -0.116040706635, -0.043045427650, -0.207849487662, -0.275738000870, -0.010684091598, 0.039957996458, -0.186453670263, 0.090216077864, 0.089321069419, -0.135708525777, 0.063091240823, 0.179534018040, -0.021353056654, -0.046784747392, 0.230553582311, 0.259209424257, 0.277749896049, 0.004075509962, -0.115833409131, 0.252832174301, -0.270736008883, 0.007966123521, -0.256383031607, 0.144430682063, 0.268508911133, -0.185769721866, -0.195668339729, -0.058956895024, -0.190903455019, -0.236869290471, 0.300429999828, -0.282460927963, -0.170558780432, -0.047441307455, -0.314969092607, 0.079552277923, 0.293533504009, -0.235971182585, -0.165051922202, -0.128851264715, -0.174061328173, 0.198408663273, 0.179915159941, 0.066642172635, 0.050437062979, -0.280427962542, 0.208857461810, -0.159124702215, 0.118094384670, 0.115158103406, -0.122683487833, -0.241051331162, -0.060170087963, 0.118086814880, -0.066169194877, -0.078412011266, -0.022665601224, -0.318077892065, 0.017118038610, -0.304701298475, -0.225432172418, 0.285278826952, 0.115076899529, -0.315140783787, -0.004148229491, 0.187894821167, 0.206957161427, 0.312190502882, -0.087715685368, 0.186840504408, -0.213651910424, 0.240157455206, -0.319370865822, 0.243837282062, 0.135160401464, -0.147382780910, -0.317838251591, -0.096568696201, -0.195796191692, -0.282025307417, 0.183990627527, 0.279575556517, -0.168850809336, 0.040964405984, 0.186791777611, 0.023825129494, 0.124736048281, 0.016595533118, -0.137854069471, -0.212683007121, 0.100040212274, -0.093365743756, -0.029728101566, 0.282671630383, 0.038126792759, -0.300596505404, -0.092977315187, -0.139643281698, -0.116643957794, -0.296661019325, -0.298577100039, -0.011370395310, -0.191254198551, 0.314934700727, -0.154636934400, -0.261242985725, 0.059800390154, -0.297502219677, 0.314835309982, 0.042484767735, 0.162134855986, -0.089892946184, -0.179351493716, -0.086151063442, 0.115944541991, 0.191638603806, -0.114653684199, -0.205860957503, 0.270476937294, -0.153963714838, -0.100472912192, -0.249681413174, 0.304128259420, -0.291799277067, 0.224231913686, 0.194496482611, 0.244843706489, 0.183551236987, 0.017504503950, -0.141150847077, -0.205938577652, 0.238769799471, -0.314160197973, -0.288907527924, -0.194694191217, 0.265086442232, 0.190093770623 } ;

float bias_2[48] = { 0.0033790711, 0.0016781214, -0.00040354158, 0.0007397623, -0.004120151, 0.003206768, 0.0072471793, -0.0025412913, -0.0036229617, 0.0014235567, -0.00460412, -0.00054337987, 0.0022106434, -0.005257328, -0.006354372, 0.0029512616, 0.007505797, -0.0039837346, 0.0002841291, -0.00453285, -0.003436908, -0.011046881, -0.011400127, -0.008257858, -0.009633582, -0.00060439215, 0.003710267, 0.0036870704, -0.0054771015, 0.0067480993, 9.836732e-05, -0.0031097413, 0.0056169904, 0.002802653, -0.002150453, -0.012069056, 0.0012177856, 0.0072016837, 0.00022891894, -0.006785706, 0.0019267345, -0.0029173049, 0.0055503263, -0.003918446, -0.0019204828, 0.008693423, 0.0005551586, -0.0044297636 };

float batch_normalization_2_gamma[48] = {0.9928310513496399, 0.9890588521957397, 1.0017069578170776, 0.9971429705619812, 0.999015212059021, 0.9898897409439087, 1.0143030881881714, 1.000186800956726, 1.00246000289917, 1.000314474105835, 0.985645055770874, 0.9912834763526917, 1.0035899877548218, 0.9901507496833801, 1.0136319398880005, 1.0016586780548096, 0.9973365068435669, 1.0043784379959106, 0.9979501366615295, 1.014190912246704, 1.0099961757659912, 0.998822808265686, 1.008137583732605, 0.9916419982910156, 1.0005336999893188, 1.0074901580810547, 1.0041836500167847, 0.9904361963272095, 1.004722237586975, 1.0210886001586914, 0.9924899935722351, 0.9998759627342224, 0.9899349808692932, 0.9905592203140259, 1.0056594610214233, 0.9979872703552246, 0.9918150901794434, 0.989130973815918, 1.0064061880111694, 0.9983102083206177, 1.0003724098205566, 1.0098676681518555, 1.0004650354385376, 1.0076711177825928, 1.0062320232391357, 1.0003101825714111, 0.9935922622680664, 0.9891598224639893};

float batch_normalization_2_beta[48] = {-0.004096250515431166, -0.009680301882326603, -0.005886232014745474, 0.009160805493593216, -0.008174244314432144, -0.0023980936966836452, -0.0035841241478919983, 0.006879789754748344, 0.006996838375926018, 0.008121620863676071, 0.00532979192212224, 0.00497082807123661, 0.004804015625268221, -0.01692032255232334, 0.0041696918196976185, -0.0016741378931328654, -0.000889624236151576, -0.008807452395558357, -0.00891437940299511, 0.000567414506804198, 0.012981381267309189, -0.022539900615811348, 0.012644585222005844, 0.003744197078049183, -0.018225468695163727, -0.021128632128238678, -0.002704076701775193, -0.0012186585227027535, 0.007634718902409077, -0.00737204821780324, -0.0022342624142766, -0.012368027120828629, 0.011632341891527176, -0.010827395133674145, -0.0018802323611453176, -0.01158128771930933, 0.008530847728252411, 0.008634103462100029, -0.008770653046667576, -0.006494265049695969, -0.0012290850281715393, 0.015441901050508022, -0.006158001720905304, 0.002018763916566968, 0.0005033164052292705, -0.002734415465965867, 0.002500671660527587, -0.004723009653389454};

float batch_normalization_2_mean[48] = {0.0742068737745285, 0.03571968525648117, 0.10913504660129547, 0.03608155995607376, -0.06031152606010437, -0.24135449528694153, -0.015584437176585197, 0.04050832614302635, 0.11351826041936874, 0.006850961595773697, 0.06644849479198456, -0.0009484160109423101, 0.10744596272706985, -0.12318429350852966, -0.03735390305519104, -0.01964682899415493, -0.13496588170528412, -0.05173274502158165, -0.007554943207651377, 0.2270916998386383, 0.01999238133430481, 0.1354711502790451, 0.12416921555995941, -0.06024054065346718, -0.02222760021686554, -0.23885060846805573, -0.17579154670238495, 0.07913216948509216, 0.1525368094444275, 0.03889254480600357, -0.1174430176615715, -0.12384668737649918, 0.19850896298885345, 0.051449019461870193, -0.2522527873516083, -0.16363424062728882, 0.10011700540781021, -0.08054402470588684, -0.21127505600452423, 0.12675787508487701, -0.08857306092977524, 0.08920931071043015, -0.0933540016412735, -0.22484859824180603, -0.1089225709438324, -0.01234416663646698, 0.09354890137910843, -0.07146483659744263};

float batch_normalization_2_variance[48] = {0.2533254325389862, 0.04946132376790047, 0.06302564591169357, 0.10314858704805374, 0.23972062766551971, 0.1772555261850357, 0.12958672642707825, 0.07765620946884155, 0.09218988567590714, 0.15307429432868958, 0.08664272725582123, 0.04583566263318062, 0.13121849298477173, 0.051578156650066376, 0.10754132270812988, 0.05574081838130951, 0.08237874507904053, 0.12885411083698273, 0.0532950833439827, 0.252668559551239, 0.08627191185951233, 0.11270567029714584, 0.09033393859863281, 0.04051097854971886, 0.08749380707740784, 0.40475332736968994, 0.07698951661586761, 0.06484568864107132, 0.08179960399866104, 0.024913478642702103, 0.07883188873529434, 0.08639156073331833, 0.07506830245256424, 0.046505752950906754, 0.18056583404541016, 0.16654090583324432, 0.0370008610188961, 0.025980178266763687, 0.3775753378868103, 0.22216998040676117, 0.09378938376903534, 0.10882899165153503, 0.1502225548028946, 0.17929485440254211, 0.0676475316286087, 0.02781391702592373, 0.13604618608951569, 0.13919253647327423};

float depthwise_conv2d[336]= { -0.114158481359, 0.052803255618, -0.107246756554, 0.022143919021, -0.076093114913, -0.082236185670, 0.105302810669, 0.012517094612, 0.044071752578, -0.006149043795, 0.026148345321, -0.060681663454, -0.010179872625, 0.128998473287, -0.077171377838, -0.086241818964, -0.025213472545, 0.093421228230, -0.066663421690, -0.086360245943, -0.119973406196, 0.033436458558, -0.089142367244, -0.025257235393, -0.095557019114, 0.077525950968, -0.058707974851, -0.072291634977, 0.117482461035, 0.065809912980, 0.059234544635, 0.009989017621, 0.026014739648, -0.059830650687, -0.041322033852, -0.126597091556, -0.119907863438, 0.024894300848, 0.006103936117, -0.051257822663, -0.046205539256, 0.074972532690, 0.092373535037, -0.108479470015, 0.033467620611, -0.125950172544, 0.096400104463, -0.121018111706, -0.043695095927, -0.035694397986, -0.078750170767, -0.010656811297, 0.076426945627, -0.009843419306, -0.107891254127, 0.082184344530, 0.058841727674, 0.003002467798, 0.101544685662, -0.096575833857, 0.059768121690, -0.023175485432, -0.079172290862, -0.050424367189, -0.048721887171, 0.082123562694, 0.080961905420, 0.072904124856, -0.071423672140, 0.092097461224, -0.032369807363, 0.070096515119, -0.062520273030, -0.074943624437, 0.044876050204, 0.118479460478, 0.100579619408, -0.009299968369, -0.038862738758, -0.121861204505, 0.040675003082, 0.050635166466, 0.040741611272, -0.115724474192, 0.026811838150, 0.126822009683, -0.122612379491, 0.041283831000, 0.055888041854, -0.106970012188, -0.023637650535, -0.086338654160, 0.114327572286, -0.091896332800, -0.042749054730, 0.111035220325, 0.034551784396, -0.080036655068, 0.078271806240, -0.008183960803, -0.059944789857, 0.119906432927, -0.109077885747, 0.026552138850, -0.143495857716, -0.033755451441, -0.043481670320, 0.000871533761, -0.023077059537, 0.052005726844, -0.030133692548, 0.098404429853, -0.062052771449, -0.068675398827, -0.036313172430, 0.059321634471, -0.108262419701, 0.134098365903, -0.007690691855, 0.113326795399, -0.069665871561, -0.106083847582, -0.030833782628, 0.102464705706, -0.042170036584, 0.085894204676, -0.111970432103, -0.021530708298, 0.057817645371, -0.069399140775, 0.125528052449, 0.072924226522, 0.100819036365, -0.073388472199, 0.115437701344, 0.047986984253, 0.014568761922, -0.059200596064, -0.056502975523, -0.045463606715, 0.102251827717, 0.084108442068, 0.111932449043, -0.003120257752, -0.033080261201, 0.090291395783, 0.000571108656, -0.108108006418, -0.102556303144, 0.054042577744, 0.093749038875, -0.020347598940, -0.029963325709, 0.134549990296, 0.099778793752, -0.091226071119, 0.034990265965, 0.002464957302, 0.090039812028, 0.108187064528, 0.103851616383, 0.021652374417, 0.133103668690, -0.004522220232, 0.001689733472, -0.063965171576, 0.092516683042, -0.005490600131, 0.085109882057, 0.128763467073, -0.020437551662, -0.034542687237, -0.120632626116, -0.111147336662, -0.023300807923, 0.078678064048, -0.028597578406, 0.090545535088, -0.009632351808, -0.011147666723, -0.015148820356, 0.125821039081, 0.098626732826, -0.093607388437, 0.050062242895, 0.104976668954, -0.058214381337, -0.074456945062, -0.113015197217, -0.026522247121, -0.005243088584, -0.002028357470, -0.099441178143, 0.027407664806, 0.101840741932, 0.016001963988, 0.015831211582, 0.015330103226, 0.073092877865, 0.015506590717, -0.063595540822, -0.018093466759, 0.082983814180, -0.088858097792, 0.012374013662, -0.076422773302, -0.055438652635, 0.136315464973, -0.033262547106, -0.027568113059, 0.116294138134, -0.021753285080, 0.049161847681, -0.066534042358, 0.126664951444, -0.081125974655, 0.069706186652, -0.088740877807, -0.036604572088, 0.074351079762, 0.062383353710, 0.080646656454, 0.075243845582, -0.050755653530, 0.000230177917, 0.087694711983, 0.027414062992, -0.094091415405, 0.062239423394, 0.053018134087, 0.099811270833, -0.034053616226, 0.082844458520, -0.025875942782, 0.131431773305, -0.022069880739, -0.080591619015, 0.088560931385, 0.075135976076, -0.104529872537, 0.114592894912, -0.101463004947, -0.082495093346, 0.024345379323, -0.026520093903, -0.087220497429, -0.060722928494, 0.131072610617, 0.012763435021, -0.105769552290, -0.004210399929, -0.098898798227, -0.094101481140, 0.105727002025, 0.120231389999, 0.103812880814, -0.036672364920, 0.026752589270, -0.120129778981, -0.008884554729, 0.114962220192, -0.085481524467, -0.094008743763, 0.105737172067, 0.026999503374, 0.031919576228, 0.132412925363, 0.067981667817, 0.099908865988, 0.041871253401, 0.115917272866, 0.111029289663, -0.065081469715, -0.116438820958, 0.080656386912, 0.059000965208, 0.085587419569, -0.051807262003, 0.015625404194, 0.038357812911, -0.119910553098, -0.067243717611, -0.081829272211, -0.098593503237, 0.126969143748, 0.088507093489, 0.102585032582, 0.104419976473, -0.126697450876, 0.133514404297, 0.102651417255, 0.090034447610, -0.085548952222, 0.111586540937, -0.104076214135, -0.025849053636, -0.006363806780, 0.017654396594, -0.021865854040, 0.125028505921, 0.100419200957, 0.083289265633, -0.128617972136, 0.091586820781, -0.056338667870, -0.012717694044, -0.003750246949, 0.053684469312, 0.038351722062, -0.026794793084, 0.088708423078, -0.074515506625, -0.085173226893, -0.078790970147, 0.059289027005, -0.028640247881, 0.030702928081, 0.117830194533, 0.124046400189, 0.023406580091, -0.113712340593, 0.100596822798, 0.060494575649, 0.082846522331, -0.035580534488, 0.058030035347, -0.104787319899, 0.042687807232, -0.017903342843, 0.005522062536, -0.095616877079, 0.041480317712, -0.105120219290, -0.100835748017, 0.012315970846, 0.076623082161 };

float depthwise_conv2d_bias[48] = { -0.0043980894, -0.0040614805, -0.0018238458, -0.004473236, 0.0016638427, -2.6990218e-05, 0.0002598774, -0.0019315035, 0.013989051, -0.0012132344, 0.010061654, -0.00018628783, 0.007561422, -0.008186851, -0.00025121204, -0.0002601213, -0.0048064743, -0.007905401, 0.013868421, 0.0013790415, 0.0055101467, 0.0009023904, -0.0064921128, -0.0008648908, -0.004428075, 0.0047867093, 0.009341264, 0.015106564, -0.0025698896, 0.0006545025, -0.0036313701, -0.0016280357, 0.0030219583, -0.0044185487, -0.001901744, 0.0004824594, 0.0023741517, 0.0058370843, -0.00012228051, -8.327562e-05, 0.008136567, 0.0018587176, 0.0040050205, -0.0068918117, -0.00024711154, 0.0012084468, 0.0022841643, -0.0023147934 };

float batch_normalization_3_gamma[48] = {0.9969224333763123, 1.0003721714019775, 0.9947144389152527, 0.9986206293106079, 1.0004189014434814, 0.9887476563453674, 1.0121958255767822, 0.9967664480209351, 1.0081599950790405, 0.9996622204780579, 0.9922623634338379, 0.9936935305595398, 1.0041502714157104, 0.9949548244476318, 1.0069555044174194, 1.003203272819519, 0.9955271482467651, 1.0034921169281006, 0.9977023005485535, 1.0064985752105713, 1.0031101703643799, 1.0023140907287598, 0.9939830303192139, 0.9930837154388428, 1.0079153776168823, 1.009713888168335, 1.0036883354187012, 0.9937334656715393, 1.010393500328064, 1.011747121810913, 0.9926680326461792, 1.0014965534210205, 0.9901914000511169, 0.9954690337181091, 1.0054513216018677, 0.9986243844032288, 0.9969406723976135, 0.9906518459320068, 1.0059722661972046, 1.0046242475509644, 1.0030771493911743, 1.0064382553100586, 0.9990021586418152, 1.008659839630127, 1.0063830614089966, 1.0004637241363525, 0.9999455213546753, 0.9893523454666138};

float batch_normalization_3_beta[48] = {0.00721800047904253, -0.008319663815200329, -0.008196162059903145, -0.011183003894984722, -0.005683692637830973, -0.010457214899361134, -0.004184470511972904, -0.011939852498471737, 0.014157630503177643, 0.0025977531913667917, -0.00705051189288497, -0.009553941898047924, 0.00025268239551223814, -0.0016524223610758781, -0.0029290420934557915, -0.004601472523063421, -0.007430666591972113, 0.008181017823517323, -0.007803295273333788, 0.00783505942672491, 0.008586353622376919, -0.0022039597388356924, -0.000999588519334793, 0.001976861385628581, -0.0002749584673438221, 0.003178291954100132, -4.6416244003921747e-07, 0.0008247960940934718, 0.012488692998886108, 0.0012934007681906223, 0.006790365558117628, -0.0033681343775242567, -0.002906456356868148, -0.002992279129102826, 0.007663503754884005, 0.0007453010766766965, 0.001032174564898014, 0.007507133763283491, -0.0054979948326945305, -0.00215698778629303, 0.0007406635559163988, 0.005770046263933182, -0.00448398245498538, 0.0011416564229875803, -0.010663769207894802, 0.003101648995652795, -0.011777427978813648, -0.011000393889844418};

float batch_normalization_3_mean[48] = {-0.06006549671292305, 0.024117793887853622, -0.09798326343297958, -0.05770060047507286, 0.05130448937416077, -0.07164262980222702, -0.03793375566601753, -0.022177230566740036, 0.02069852314889431, 0.03458384796977043, 0.055471934378147125, -0.04374438151717186, 0.007092246785759926, -0.019076714292168617, -0.018394334241747856, 0.005070872139185667, -0.02803119644522667, 0.0027771361637860537, 0.05247258022427559, -0.014523059129714966, 0.08205344527959824, 0.006170426961034536, 0.09053552150726318, 0.04913206398487091, -0.028083473443984985, 0.0705629289150238, -0.014982619322836399, 0.017869526520371437, 0.03304076939821243, -0.031785789877176285, 0.044392045587301254, 0.029568789526820183, 0.07478604465723038, 0.02985156886279583, -0.031940776854753494, -0.047854550182819366, 0.03219044953584671, 0.030005712062120438, 0.13460741937160492, 0.03332509472966194, -0.006267481949180365, 0.09717556834220886, 0.025073489174246788, 0.0010042840149253607, -0.022935936227440834, 0.06077532470226288, 0.023364609107375145, -0.03830926492810249};

float batch_normalization_3_variance[48] = {0.020083054900169373, 0.011062447912991047, 0.039752814918756485, 0.010066471993923187, 0.009831031784415245, 0.002664512488991022, 0.012096554040908813, 0.01051909476518631, 0.018020182847976685, 0.010152969509363174, 0.018417982384562492, 0.008311592042446136, 0.028020638972520828, 0.0030286936089396477, 0.01562742330133915, 0.003362697549164295, 0.0012912070378661156, 0.008759239688515663, 0.02126740664243698, 0.018070610240101814, 0.027401749044656754, 0.030573423951864243, 0.04900219663977623, 0.007172147743403912, 0.011105231009423733, 0.0019970221910625696, 0.0019362835446372628, 0.008807907812297344, 0.009728746488690376, 0.014861980453133583, 0.008270187303423882, 0.0023089502938091755, 0.024880796670913696, 0.0076181055046617985, 0.0015212279977276921, 0.005064521450549364, 0.0369354672729969, 0.001196608180180192, 0.0073764934204518795, 0.01402687281370163, 0.010604362934827805, 0.042084142565727234, 0.013168642297387123, 0.0030524954199790955, 0.004681598395109177, 0.021463409066200256, 0.010422208346426487, 0.002728656865656376};

float conv2d_4[384]= { 0.053846172988, -0.303114205599, 0.250041574240, -0.082558833063, 0.048011586070, -0.139531940222, -0.068114489317, 0.315429508686, 0.303707540035, 0.175754934549, -0.291435718536, -0.075601920485, 0.297196745872, -0.190203577280, 0.217932939529, 0.162932872772, -0.306136906147, 0.199146851897, -0.091378502548, -0.055332429707, 0.032456498593, 0.244806557894, -0.071932017803, -0.166725605726, -0.166047170758, 0.056775387377, -0.219776526093, -0.318102031946, -0.081467762589, 0.047529749572, -0.201122328639, -0.305229514837, -0.028191572055, 0.040000334382, 0.311796545982, -0.050951380283, 0.306029945612, -0.147462129593, -0.129298374057, 0.207765251398, -0.117669820786, -0.113754056394, -0.018434382975, -0.142461270094, 0.247026532888, 0.325472205877, -0.075914420187, -0.276669472456, 0.123861774802, 0.320929139853, -0.081265278161, 0.066273704171, -0.243808910251, -0.015234437771, 0.123510330915, 0.213828340173, -0.094189688563, -0.231341660023, 0.166505634785, -0.272887825966, 0.071792073548, 0.000762802316, -0.037768952549, 0.014397456311, 0.189472019672, 0.269348323345, 0.078907527030, -0.325887471437, 0.075434274971, -0.272804856300, -0.023380577564, -0.134045377374, 0.028839847073, -0.334077268839, -0.049800217152, -0.124819889665, -0.236313611269, 0.144770994782, -0.139035850763, -0.307238191366, 0.267502218485, 0.285559028387, -0.269883334637, 0.083748206496, -0.000478439644, 0.173837050796, 0.116196550429, -0.085890859365, -0.281977862120, 0.135240271688, 0.230784699321, 0.234197229147, -0.295053213835, 0.312289565802, -0.253417342901, 0.308445990086, -0.305393278599, 0.104338169098, 0.210502713919, -0.253200799227, 0.163196712732, -0.062034826726, 0.173058807850, -0.213078022003, 0.146452143788, 0.244535684586, -0.199176132679, -0.002029849216, -0.230181545019, 0.158697426319, -0.060886260122, -0.228964820504, -0.186221405864, -0.186352163553, 0.130690723658, -0.049939528108, -0.140008240938, 0.139978766441, -0.081107862294, 0.285067081451, 0.318456798792, 0.041972476989, -0.033363536000, -0.239166975021, 0.012855934910, -0.062080178410, -0.131122484803, -0.019364535809, 0.035171456635, -0.049044311047, 0.109547346830, 0.035419393331, 0.024469913915, -0.133043155074, -0.222017526627, -0.070536755025, -0.250788509846, 0.217582613230, -0.250230550766, 0.272186785936, 0.142341747880, -0.202915430069, -0.069512829185, 0.297976672649, -0.285991460085, -0.133995428681, -0.291486889124, 0.157520323992, 0.330924481153, 0.165346622467, -0.202610686421, 0.019023604691, -0.153372466564, 0.060420989990, 0.012619338930, 0.240315079689, 0.064271703362, -0.007240184583, 0.049823913723, 0.072852365673, -0.006635926198, -0.068693615496, -0.073515959084, 0.069206818938, -0.057679947466, 0.017809128389, 0.280636340380, 0.270721584558, -0.311516225338, 0.170762047172, -0.076848305762, 0.002560596913, 0.022425666451, -0.152525246143, 0.075174108148, -0.298979967833, -0.054851260036, 0.195531055331, 0.189032912254, -0.185093060136, 0.292318195105, -0.288361519575, 0.310209959745, -0.018480919302, 0.011525981128, -0.068973466754, 0.118513278663, 0.031618200243, 0.267508029938, -0.217188820243, -0.206100940704, -0.213438570499, -0.278197109699, 0.216453686357, -0.023646218702, 0.276844769716, 0.241327285767, -0.247372090816, -0.262450695038, 0.150310903788, 0.041826650500, 0.070647403598, 0.020326089114, 0.152482166886, 0.227318868041, -0.158300235868, -0.307214021683, -0.180436044931, 0.271242290735, -0.301864296198, -0.318144172430, 0.229930639267, -0.219063133001, 0.150164589286, 0.002815122483, 0.257907688618, 0.238105013967, 0.103673703969, -0.013325450011, -0.063566781580, 0.028333844617, -0.242432191968, -0.045157872140, -0.234160944819, -0.301032274961, 0.186637148261, -0.196579262614, -0.170528233051, 0.073733523488, 0.006515648682, -0.281262934208, 0.265974223614, -0.155351653695, 0.193312749267, 0.250009149313, -0.295641899109, 0.264462560415, -0.194400712848, 0.102403320372, -0.255351603031, 0.303769320250, -0.230005055666, 0.063570201397, -0.197759360075, -0.115232609212, -0.035698041320, -0.068370386958, 0.030377708375, -0.005429226905, -0.049987595528, 0.304086148739, -0.206811711192, -0.081301979721, 0.043345898390, 0.044992111623, -0.134720847011, -0.098355501890, 0.263406455517, 0.149147659540, 0.003852956695, 0.129647642374, -0.182948842645, -0.250978767872, 0.289765059948, -0.169360205531, -0.163334935904, -0.239931762218, 0.180653870106, -0.098772056401, -0.221343994141, -0.112482666969, -0.218383118510, 0.143888920546, -0.093145355582, -0.115919075906, 0.283915907145, 0.308874219656, 0.270037561655, -0.200780540705, -0.294827938080, 0.209170967340, -0.277519434690, -0.081090301275, 0.253243744373, 0.290042757988, -0.083352945745, -0.070500873029, -0.088854543865, -0.083020009100, -0.124397478998, -0.195291966200, 0.059149958193, 0.071037806571, -0.049845330417, -0.217446252704, 0.051144868135, -0.218142122030, 0.222216576338, 0.292100191116, 0.167070955038, 0.122552640736, 0.269290983677, -0.002427752595, -0.100624345243, 0.225991636515, 0.225417450070, 0.288419783115, 0.165284737945, 0.256376683712, 0.101066961884, 0.102711170912, -0.094289474189, -0.176358506083, -0.283421039581, -0.256344586611, -0.048914045095, -0.060639679432, 0.073149032891, 0.243608132005, -0.120512336493, -0.254062712193, 0.149647593498, -0.181415766478, -0.232621535659, -0.134933799505, 0.060125790536, 0.212542116642, 0.236210286617, 0.139742642641, -0.044492766261, 0.135682672262, 0.087264940143, -0.165748596191, 0.301652878523, -0.190773591399, 0.200333207846, -0.309182405472, -0.180733934045, -0.112725518644, 0.229833632708, 0.292978107929, -0.265124529600, 0.129659742117, -0.079484939575, -0.305395156145, -0.069657132030, -0.307224988937, -0.229919448495, -0.125388503075, -0.267593204975, -0.181074291468, 0.003011614550, 0.099510781467, -0.011700818315, 0.268292456865, 0.108164176345, -0.325927138329, 0.152583554387, 0.100464850664, 0.182563185692, 0.310852915049, 0.293012201786, -0.176362499595, 0.277780443430, -0.046205032617, -0.199114948511, -0.111461654305, 0.176678344607, 0.145767599344, 0.153606116772, -0.172345235944, 0.054365828633, -0.109280385077, -0.160349413753, -0.154193773866, 0.037492372096, 0.075979351997, -0.159919247031, -0.208129301667, 0.220497652888, 0.164590045810, 0.299871832132, 0.241735294461, 0.021980490535 };

float bias_4[8] = {0.000722871336620301, 0.0016377235297113657, 0.010027805343270302, -0.003522488521412015, 0.0014039953239262104, -0.006459482945501804, 0.0016790737863630056, -0.005513418465852737};

float batch_normalization_4_gamma[8] = {1.0082355737686157, 0.9997093081474304, 0.988313615322113, 0.9968150854110718, 1.0010086297988892, 0.9959167242050171, 1.0046758651733398, 1.005487084388733};

float batch_normalization_4_beta[8] = {0.004684610292315483, 0.0012789953034371138, 0.0009111851686611772, -0.002006122376769781, -0.004605607129633427, 0.002938204910606146, -0.005218271631747484, 0.004679645877331495};

float batch_normalization_4_mean[8] = {-0.16742989420890808, -0.04926497861742973, -0.1670808345079422, 0.06145588308572769, -0.2470024675130844, -0.23616230487823486, 0.29961371421813965, -0.10339060425758362};

float batch_normalization_4_variance[8] = {0.40806183218955994, 0.7364330887794495, 0.4363992214202881, 0.5025654435157776, 0.6639973521232605, 0.5771631002426147, 0.7145721912384033, 0.4742903709411621};

float conv2d_5[384]= { -0.030327269807, 0.313956081867, -0.279187470675, 0.293713271618, -0.228257551789, 0.211177334189, 0.017678130418, -0.155502468348, 0.096176698804, 0.152409866452, 0.293418049812, -0.069216616452, -0.317095249891, 0.158646747470, -0.249292612076, 0.297178179026, 0.294682115316, 0.262619942427, -0.326195120811, 0.282856613398, 0.312572389841, -0.251695990562, 0.084026940167, -0.147227510810, 0.265315026045, 0.257796496153, -0.252241253853, -0.110716566443, 0.146485522389, 0.319613635540, -0.174150392413, -0.130126535892, -0.219575896859, 0.036786861718, 0.022340063006, 0.129650652409, 0.137698173523, -0.082145139575, -0.124235957861, 0.138012096286, 0.153523921967, 0.240860790014, -0.164641603827, -0.071971319616, 0.276630789042, -0.256695270538, 0.121740631759, 0.141381606460, -0.110725998878, -0.243395283818, 0.318141907454, -0.278707712889, -0.019107423723, 0.101149864495, -0.318998456001, 0.150073334575, 0.311490416527, 0.073871538043, -0.184910431504, -0.063408784568, 0.113788522780, 0.084675870836, -0.195544168353, 0.105878800154, -0.242116019130, -0.304559856653, -0.215225234628, -0.123642712831, 0.070447050035, -0.066113993526, -0.003366236575, 0.130458638072, 0.137635424733, -0.116006620228, -0.016758732498, -0.125453501940, 0.075945861638, 0.092516854405, -0.311590462923, 0.302785962820, -0.136884093285, 0.188059672713, -0.165802717209, -0.273451983929, 0.208831265569, 0.229925781488, 0.137838810682, 0.318323194981, -0.037276726216, -0.211571127176, -0.028132300824, 0.116557724774, -0.126890286803, -0.250672727823, -0.104940131307, 0.304119378328, -0.030669134110, 0.151657417417, -0.058638375252, -0.060738291591, -0.309505552053, 0.109077543020, -0.057142913342, -0.238816797733, -0.120155207813, 0.222883582115, -0.185529530048, -0.303033649921, 0.116739638150, -0.285216748714, 0.238719329238, 0.256557792425, -0.059913486242, 0.091723605990, 0.100306510925, -0.214075207710, 0.239548295736, -0.253874361515, -0.259577453136, -0.265541434288, -0.119997598231, -0.105032444000, -0.144151195884, -0.214756965637, 0.010174991563, 0.140618950129, 0.096046939492, 0.115472756326, 0.030993804336, -0.142612665892, -0.256806790829, 0.224189892411, 0.119683943689, 0.049610070884, -0.095283724368, -0.173972308636, 0.191836684942, 0.252995967865, -0.073105312884, -0.250942140818, -0.189294949174, 0.059422284365, -0.037044182420, -0.152210086584, 0.310447901487, -0.062747783959, -0.054121881723, 0.151574715972, -0.303927958012, -0.289079606533, 0.101172700524, 0.249865427613, -0.313817173243, 0.028899528086, 0.014092633501, -0.287069261074, -0.056534912437, -0.172518804669, 0.230256557465, -0.072215452790, 0.261794418097, 0.301872193813, -0.155540704727, 0.273662179708, -0.024909453467, -0.248647943139, -0.077707596123, 0.129031807184, -0.140081167221, 0.109952159226, 0.052397441119, -0.193588629365, -0.190700709820, -0.044320829213, 0.052753932774, 0.306565552950, -0.175927937031, 0.044017788023, -0.240239873528, -0.337533921003, -0.089296236634, -0.223323419690, -0.178522676229, -0.130741044879, 0.261507153511, 0.037830788642, -0.267336398363, 0.059047561139, 0.324582576752, 0.130350366235, -0.091305956244, 0.170587182045, -0.092924408615, -0.284573674202, 0.091738589108, -0.314263105392, 0.320469588041, -0.163262113929, -0.279027909040, 0.059719864279, 0.070083834231, -0.046967186034, 0.281748443842, 0.230229780078, 0.091868311167, 0.025713093579, 0.187961235642, -0.123811617494, -0.094117157161, -0.232634440064, 0.251022040844, 0.165647730231, -0.081877067685, 0.304556876421, -0.182470187545, -0.012792939320, -0.262592166662, 0.083068631589, 0.018840093166, 0.049887213856, 0.290385395288, 0.045944675803, 0.276345610619, -0.162158474326, -0.141882836819, -0.068791888654, 0.064821943641, 0.197721421719, -0.320951342583, -0.048549566418, -0.223147496581, 0.016812300310, 0.110472455621, -0.177229464054, 0.147050023079, -0.091957099736, -0.107953101397, 0.221911936998, 0.239991262555, -0.129528060555, 0.298746138811, -0.030867345631, 0.086490251124, -0.249877914786, -0.296150833368, 0.132145360112, 0.299919068813, 0.024666152894, 0.241267159581, 0.247093558311, 0.172346964478, -0.141874432564, -0.109082125127, -0.185346797109, -0.100120589137, -0.308885157108, 0.172006994486, 0.272793859243, 0.029586480930, -0.116241164505, 0.283310979605, 0.320556163788, -0.147887870669, -0.206941366196, -0.018963834271, -0.115093328059, -0.314488261938, -0.216568380594, -0.016039673239, 0.248354166746, 0.301969259977, -0.061757873744, -0.257173001766, 0.007215381134, -0.021152388304, 0.006323779467, -0.226139992476, 0.047032758594, -0.012698763981, 0.091524377465, -0.019909959286, -0.259718030691, 0.242568552494, 0.212761968374, 0.279560685158, -0.213347211480, -0.093086212873, 0.319119900465, 0.096443362534, 0.283814132214, 0.054548863322, 0.140665650368, 0.215048000216, 0.147460386157, -0.291158288717, -0.105657398701, 0.192775025964, 0.311397016048, -0.286908477545, 0.308206170797, 0.101050689816, -0.251211673021, 0.198282942176, -0.017820743844, -0.070217549801, 0.256833523512, -0.028972785920, 0.084547415376, 0.063988350332, -0.127388536930, 0.115599565208, -0.168514847755, -0.107740387321, 0.081074558198, 0.308325618505, 0.107095211744, -0.170572310686, 0.238418117166, -0.285391360521, 0.300955623388, -0.026922810823, -0.251637428999, 0.078724630177, 0.026048555970, -0.116872258484, 0.168435245752, 0.051642667502, 0.133950769901, -0.150334075093, -0.247506886721, -0.297556608915, 0.199765011668, 0.185718014836, 0.135654762387, -0.245332345366, -0.258445054293, 0.283187389374, -0.251354455948, -0.068174734712, 0.268944591284, 0.278420478106, -0.293705523014, -0.274952083826, -0.068005301058, -0.090560004115, 0.015240985900, -0.280891418457, -0.172682270408, -0.293213516474, -0.252162933350, -0.262758463621, -0.149563431740, 0.306290209293, 0.011847422458, 0.088208913803, 0.185981616378, -0.312251299620, 0.103546433151, -0.147117003798, 0.261812239885, 0.163363099098, 0.136685103178, -0.227433964610, 0.103870756924, 0.099467292428, 0.252195209265, -0.308147281408, -0.171069741249, -0.150065824389, -0.308767944574, -0.205479189754, 0.062524892390, 0.171772226691, -0.139468505979, -0.209493592381, -0.128551691771, 0.055945284665, 0.297633647919, -0.069019317627, -0.203597873449, 0.140274509788, -0.279822498560, -0.019796561450, 0.259194135666 };

float bias_5[48] = {-0.007494366727769375, -0.0013387507060542703, -0.001701098051853478, -0.002645011991262436, -0.0009931979002431035, 0.007628817576915026, 0.002058950252830982, -0.0013353548711165786, 8.758252806728706e-05, 0.0018067865166813135, 0.0028949591796845198, -0.0065613919869065285, 0.008285881020128727, 0.0006655498873442411, -0.0026663632597774267, -0.00041707989294081926, -0.0037778771948069334, 0.0037529547698795795, 0.0015718808863312006, 0.00398262171074748, -0.004898677580058575, -0.003690584795549512, 0.0031055212020874023, -0.007956273853778839, 0.008036701940000057, -0.0017821468645706773, 0.001858709380030632, 0.006744449492543936, -0.0034548204857856035, -0.007097420748323202, 0.006930702365934849, -0.004422030411660671, -0.0016160906525328755, -0.010228877887129784, -0.009795517660677433, 0.0059324512258172035, 0.00086828728672117, -0.0008332006982527673, -0.005994465202093124, 0.009630728513002396, 0.007419981528073549, -0.0026337518356740475, 0.0022136433981359005, 0.005424580071121454, 0.001823249738663435, 0.002496536122635007, 0.001146579161286354, 0.005919014103710651};

float batch_normalization_5_gamma[48] = {0.9951788187026978, 0.9951893091201782, 1.0022318363189697, 0.9913044571876526, 1.0041230916976929, 1.0176705121994019, 1.0045528411865234, 1.0125795602798462, 0.9921982288360596, 0.9917852878570557, 1.0079710483551025, 0.9955562949180603, 1.0154246091842651, 1.0044865608215332, 1.0054900646209717, 1.0042121410369873, 0.9961974024772644, 0.9975540041923523, 0.9883219003677368, 1.0112015008926392, 1.0105693340301514, 1.0059443712234497, 0.998900830745697, 1.0010231733322144, 1.0112940073013306, 1.003354549407959, 0.9960886240005493, 0.988008975982666, 0.9939591884613037, 0.9956072568893433, 0.9990739226341248, 0.9961118102073669, 0.9975512027740479, 0.9876400828361511, 0.9970867037773132, 1.0092175006866455, 1.0212308168411255, 1.0023691654205322, 1.0200079679489136, 0.992719829082489, 0.9878489971160889, 1.0034717321395874, 0.9982520937919617, 0.9994974136352539, 1.0011037588119507, 0.9936738014221191, 0.9922007322311401, 1.011664867401123};

float batch_normalization_5_beta[48] = {-0.0024664332158863544, -0.012721352279186249, -0.003747092094272375, 0.015292253345251083, 0.0025543919764459133, 0.019481804221868515, 0.011762327514588833, -0.005660560913383961, 0.009835072793066502, -0.01488011609762907, 0.016895296052098274, -0.014290297403931618, -0.006677533499896526, 0.005172054748982191, 0.007375512272119522, 0.00398245919495821, -0.0031275793444365263, -0.01224080566316843, -0.002379768993705511, 0.00450243940576911, -0.008350195363163948, 0.0032984116114676, 0.016568217426538467, -0.01589224301278591, -0.0008052251068875194, 0.006354525685310364, 0.01112919207662344, 0.009147516451776028, -0.010759223252534866, 0.016249610111117363, 0.005021688062697649, -0.01405423879623413, 0.005338149145245552, -0.006802731659263372, -0.008487839251756668, -0.007113434374332428, -0.002061522100120783, -0.008373971097171307, 0.012278866954147816, 0.0008811933221295476, -0.017864560708403587, 0.004258331842720509, -0.007199438754469156, 0.0006524831987917423, -0.002422697376459837, -0.012509678490459919, -0.009043056517839432, 0.010988021269440651};

float batch_normalization_5_mean[48] = {-0.00722536351531744, 0.004353656899183989, -0.004167826380580664, -0.00046912149991840124, -0.001847828389145434, 0.006693282164633274, 0.004845926538109779, 0.0014822514494881034, -0.001410736353136599, 0.005528687499463558, 0.003371046157553792, -0.005475889891386032, 0.009324663318693638, -0.0005820280639454722, -0.004033645149320364, -0.0003658286004792899, -0.005227995105087757, 0.006089135073125362, 0.0037804588209837675, 0.001340205199085176, -0.003591151675209403, -0.001886745565570891, 0.0028824196197092533, -0.006795581430196762, 0.0077095236629247665, -0.0036339357029646635, 0.003125243354588747, 0.0020953738130629063, -0.002019858220592141, -0.007226832676678896, 0.009252115152776241, -0.0034455975983291864, -0.0006674030446447432, -0.011358006857335567, -0.009402590803802013, 0.005373084452003241, 0.0020118989050388336, -0.002731538377702236, -0.008186417631804943, 0.013651126064360142, 0.008344544097781181, -0.004738103598356247, 0.0015889146598055959, 0.006364812608808279, 0.006806669756770134, 0.004121540579944849, -0.0010022727074101567, 0.006786979269236326};

float batch_normalization_5_variance[48] = {0.6256878972053528, 0.45136409997940063, 0.622176468372345, 0.33719706535339355, 0.14464440941810608, 0.2125137597322464, 0.656630277633667, 0.1544964462518692, 0.16709057986736298, 0.36230698227882385, 0.28758886456489563, 0.22776341438293457, 0.3010808229446411, 0.283272385597229, 0.44770222902297974, 0.10749959200620651, 0.18180052936077118, 0.31584522128105164, 0.25866609811782837, 0.2683481276035309, 0.2197500616312027, 0.21474742889404297, 0.32056382298469543, 0.17267850041389465, 0.7115910649299622, 0.1514226198196411, 0.27496230602264404, 0.19799312949180603, 0.11077962815761566, 0.14116106927394867, 0.35979747772216797, 0.26013776659965515, 0.28212258219718933, 0.3567616939544678, 0.15755538642406464, 0.8260327577590942, 0.1946582943201065, 0.5102578401565552, 0.1875362992286682, 0.4828900098800659, 0.14910060167312622, 0.2846871316432953, 0.7819600105285645, 0.2900249660015106, 0.3004285991191864, 0.21208827197551727, 0.2944968640804291, 0.2095780074596405};

float conv2d_6[336]= { 0.050446573645, 0.122158117592, 0.083404123783, -0.040184661746, -0.068888925016, 0.077351815999, -0.066742904484, -0.002348855138, 0.080536969006, 0.077751934528, -0.085050955415, 0.120814234018, -0.007248387206, -0.100498378277, 0.108238510787, -0.042046360672, 0.028141913936, 0.046801555902, 0.115830726922, -0.035652633756, 0.109019897878, 0.049779340625, 0.033314105123, -0.120532408357, -0.045456539840, -0.031141236424, 0.006345162634, 0.121189869940, 0.097446024418, -0.132695913315, 0.002555034123, 0.078722551465, 0.000866829825, -0.083997607231, -0.106025025249, -0.034868791699, 0.025549583137, 0.027488393709, 0.004442118108, -0.090258277953, 0.065518289804, 0.002123902086, -0.108483485878, 0.018432134762, -0.060812983662, 0.009886823595, 0.060709673911, 0.010011655279, 0.012327347882, -0.007968096994, 0.096624612808, -0.032855264843, 0.097336612642, -0.054272580892, -0.004529065918, 0.092111855745, 0.066482283175, -0.128748849034, -0.016397496685, -0.003248175373, 0.121543861926, 0.059048432857, -0.019593356177, -0.053690981120, 0.005151419435, 0.134246483445, 0.133286267519, -0.070702575147, -0.048364594579, 0.007426789030, -0.095575958490, 0.007489047945, 0.055071741343, -0.084295727313, 0.039066821337, 0.056666743010, -0.046245496720, 0.021740116179, 0.005336450413, -0.119810946286, 0.079850122333, -0.116451792419, 0.025296488777, 0.009320434183, 0.020394876599, 0.083077713847, 0.002338905819, -0.052010312676, -0.096959948540, 0.019055439159, -0.100615926087, -0.114890292287, 0.100077308714, -0.012022189796, -0.063883088529, -0.008044939488, -0.040556818247, -0.129436686635, -0.034555539489, 0.058084148914, -0.029982833192, 0.047011144459, -0.108614511788, -0.035744842142, 0.097283534706, -0.058970030397, 0.090419352055, 0.103400692344, -0.000540295616, 0.034523334354, 0.009346813895, 0.018890993670, 0.135378897190, 0.029039015993, -0.084511265159, 0.090779058635, -0.050149016082, -0.017160048708, 0.068571470678, -0.121295072138, 0.002639329061, 0.031554631889, -0.123685695231, 0.053848829120, -0.080081783235, -0.128967344761, -0.050887968391, -0.128753483295, -0.140331134200, -0.108173057437, 0.023237565532, -0.125040054321, -0.065397508442, 0.097259141505, -0.025116048753, -0.097163662314, 0.029924040660, 0.086527056992, -0.013847201131, 0.078459016979, 0.086027435958, 0.007183901966, 0.014897108078, -0.130344584584, -0.080766513944, -0.025326175615, 0.009835522622, -0.099742226303, -0.105801030993, 0.113564044237, 0.057926699519, 0.069018639624, -0.107518047094, -0.021787960082, -0.116750098765, 0.049642380327, 0.007688953076, 0.018905978650, 0.043420802802, -0.058096297085, 0.096087016165, -0.018839102238, 0.011637532152, 0.107979841530, -0.041242860258, -0.020101463422, 0.087480165064, 0.102850809693, 0.037821572274, -0.091528862715, 0.077387325466, 0.071610473096, -0.063185594976, 0.131752312183, -0.059579666704, -0.036643054336, -0.118186227977, 0.106010079384, 0.007864153013, -0.020582249388, 0.113635383546, 0.037548471242, -0.040901131928, -0.049248993397, 0.057533495128, -0.115032002330, 0.035305388272, 0.076890237629, 0.039865866303, 0.110039830208, 0.123154677451, 0.129393577576, -0.078753352165, -0.074723832309, -0.035725634545, -0.096613965929, -0.043513767421, 0.021804049611, -0.062762953341, 0.058586500585, 0.056478269398, -0.076367042959, -0.122195214033, 0.112132534385, 0.126957029104, 0.064675606787, -0.027220545337, 0.069862462580, -0.073801346123, 0.064400322735, 0.088337697089, 0.016677001491, 0.052935689688, 0.080388963223, 0.057037152350, -0.034505218267, 0.126238152385, -0.022336106747, 0.062393266708, -0.070740118623, -0.121781714261, -0.108980551362, 0.102091386914, 0.135448873043, -0.098910890520, -0.041365370154, 0.021612321958, 0.087553746998, 0.049460388720, -0.028129184619, -0.125719130039, -0.073420815170, 0.085787810385, -0.133987128735, 0.008415916935, -0.088241055608, -0.009529382922, 0.067595146596, -0.032981589437, 0.032236807048, 0.085541561246, -0.111188530922, -0.022845169529, 0.115798562765, 0.006535997614, -0.010484979488, -0.036542605609, 0.026124959812, 0.078270159662, 0.091948583722, -0.051590774208, 0.115128196776, 0.064284481108, -0.018206803128, -0.089871861041, 0.107981733978, 0.068370252848, 0.006887044758, -0.060786675662, -0.004179895855, -0.094746008515, 0.109418898821, 0.038476757705, -0.115175701678, 0.032163981348, -0.008279602975, -0.056983985007, -0.110080130398, -0.098917253315, 0.108699701726, 0.088559806347, -0.028965909034, 0.126442432404, -0.036585718393, -0.011372887529, 0.067997127771, 0.053151961416, -0.103586830199, -0.086899831891, -0.101141296327, 0.108924381435, -0.041701134294, 0.064502313733, -0.008461616933, -0.098650790751, -0.048610068858, 0.075248859823, -0.074824251235, -0.087189026177, -0.044447880238, 0.047484736890, -0.112259142101, -0.043227005750, 0.094786763191, 0.103512853384, 0.107791937888, -0.026107588783, 0.079851649702, -0.042171131819, 0.032161794603, -0.067257709801, -0.033029120415, -0.023657767102, -0.099089570343, 0.016092486680, 0.004009349272, 0.137427598238, 0.081312313676, 0.001907060505, 0.075766324997, -0.026455426589, 0.115415968001, 0.053130526096, -0.126769587398, 0.063022494316, -0.137547492981, -0.044373016804, 0.050423033535, 0.004227972589, 0.124068237841, -0.074391208589, -0.115987285972, -0.011635044590, -0.050418812782, -0.049881637096, -0.067389756441, -0.069447137415, 0.112213760614, -0.017570840195, -0.033821698278, 0.092386975884, -0.071394421160, -0.040572743863, 0.082329601049, -0.122144758701, 0.029361505061 };

float bias_6[48] = {-0.003824718529358506, 0.004269689321517944, -0.0010595738422125578, 0.001995248720049858, 0.0027628247626125813, -0.005409654229879379, 0.0022550795692950487, -0.005602140910923481, 0.000432042870670557, 0.0006123928469605744, -0.004497199784964323, 0.0006438585696741939, -0.003423108020797372, -0.0037310917396098375, 0.004354671109467745, 0.0005675259162671864, 0.0034629402216523886, -0.0015636516036465764, -0.004556671716272831, -0.00861374195665121, -0.0005859833909198642, 0.002486742800101638, -0.01198471337556839, -0.010029289871454239, -0.0036269542761147022, -0.0024125308264046907, -0.00035105907591059804, 0.004536757245659828, -0.008777576498687267, -0.0064061665907502174, -0.00211926456540823, -0.004985919687896967, 0.0019338231068104506, -0.007145533803850412, -0.0016561312368139625, -0.00045467939344234765, -0.006162014789879322, -0.003265267936512828, -0.0030689386185258627, -0.0007552732131443918, 0.003748837625607848, 0.0025981201324611902, 0.002951216883957386, -0.0021611463744193316, -0.005812220741063356, -0.000914501491934061, -0.00769093818962574, 0.006740816403180361};

float batch_normalization_6_gamma[48] = {0.9952707886695862, 0.9968451857566833, 1.000123143196106, 0.9907318353652954, 0.9983226656913757, 1.0084002017974854, 1.003289818763733, 1.010972499847412, 0.9921372532844543, 0.9958591461181641, 1.004892349243164, 0.9941635727882385, 1.016197919845581, 1.0050216913223267, 1.0051918029785156, 1.001234769821167, 0.9951849579811096, 0.9995926022529602, 0.9911854267120361, 1.012958288192749, 1.0032042264938354, 1.005981683731079, 1.0000674724578857, 0.9977052211761475, 1.005383849143982, 1.002185344696045, 0.9959958791732788, 0.9978958368301392, 0.9936037659645081, 0.9973728656768799, 0.9968770146369934, 1.0021239519119263, 0.9972481727600098, 0.9971935153007507, 1.0056995153427124, 1.0004338026046753, 1.0206775665283203, 0.9884544610977173, 1.0033870935440063, 0.9965404868125916, 0.9929752945899963, 1.0044500827789307, 1.003180742263794, 0.9995430111885071, 0.9978444576263428, 0.9904749989509583, 0.9922472834587097, 1.0129245519638062};

float batch_normalization_6_beta[48] = {-0.009623902849853039, -0.012357509694993496, 0.005872606299817562, -0.007970504462718964, 0.005682745017111301, -0.0040129199624061584, 0.005295773036777973, 0.008291488513350487, 0.00603203009814024, -0.013345269486308098, -0.014244889840483665, -0.0037543466314673424, 0.016489557921886444, 0.005758396815508604, -0.004188050050288439, -0.006263154558837414, 0.004637131467461586, -0.010944738052785397, -0.013833099976181984, 0.0009445094619877636, 0.004362050443887711, 0.01211546827107668, 0.004474856425076723, 0.003495351877063513, -0.004656627774238586, 0.011157001368701458, -0.005112670827656984, 0.008193036541342735, -0.012042791582643986, 0.009727133437991142, -0.013920198194682598, -0.012892808765172958, -0.0029412300791591406, -0.0064777289517223835, 0.007324031088501215, -0.007718489971011877, 0.016653096303343773, -0.008285002782940865, 0.012993932701647282, -0.010120531544089317, -0.0009409343474544585, 0.004145958926528692, -0.004593705292791128, -0.004483652766793966, -0.0040343343280255795, 0.002358919708058238, 0.0051919929683208466, 0.0002042224514298141};

float batch_normalization_6_mean[48] = {0.03979244828224182, 0.02679412066936493, 0.09362946450710297, 0.005414734594523907, -0.038308896124362946, -0.0044081248342990875, -0.015736620873212814, 0.05683237314224243, 0.02686135657131672, 0.032686181366443634, -0.02577395923435688, -0.025386232882738113, -0.03852728754281998, -0.0867084413766861, 0.0025285177398473024, 0.062546506524086, 0.05521688237786293, -0.1027812585234642, -0.18923233449459076, 0.04225167632102966, -0.03749992698431015, -0.02487478405237198, 0.0014831835869699717, 0.06316257268190384, 0.02794681116938591, 0.027452420443296432, 0.0005237058503553271, 0.027285020798444748, -0.061716899275779724, 0.09697286039590836, 0.10617110133171082, -0.012164629064500332, -0.04102557152509689, -0.04820043593645096, 0.019724199548363686, 0.05892198905348778, 0.020848922431468964, -0.016098886728286743, 0.004682476632297039, -0.06175237149000168, 0.016354911029338837, -0.06447666138410568, 0.05694332346320152, 0.023872992023825645, 0.03892311453819275, -0.059330347925424576, -0.05187692493200302, -0.014245430938899517};

float batch_normalization_6_variance[48] = {0.021500730887055397, 0.008134750649333, 0.028043199330568314, 0.008845396339893341, 0.017506876960396767, 0.005478804465383291, 0.003862690180540085, 0.007729793898761272, 0.011730100959539413, 0.012154370546340942, 0.006968173664063215, 0.008173070847988129, 0.010099432431161404, 0.01998097449541092, 0.0043464540503919125, 0.00688507966697216, 0.015927264466881752, 0.01516488753259182, 0.08371440321207047, 0.011419272050261497, 0.02439475618302822, 0.016920600086450577, 0.007012513931840658, 0.010482138954102993, 0.005464234855026007, 0.01749608851969242, 0.0055963206104934216, 0.04668036103248596, 0.010682297870516777, 0.022032305598258972, 0.019593847915530205, 0.019994253292679787, 0.008366583846509457, 0.013395828194916248, 0.010973962023854256, 0.016487883403897285, 0.00746835395693779, 0.013756577856838703, 0.04326538369059563, 0.01042204350233078, 0.00864908006042242, 0.011229963041841984, 0.01445549912750721, 0.014749010093510151, 0.01419337559491396, 0.015106605365872383, 0.006687265820801258, 0.011691592633724213};

float conv2d_7[576]= { 0.241138756275, 0.091065652668, 0.166646048427, 0.051154725254, -0.147258564830, 0.319712579250, 0.150194913149, 0.213619619608, -0.207096382976, -0.058239180595, -0.038427274674, 0.149897292256, -0.121129140258, 0.185470938683, 0.125961616635, 0.244629040360, -0.152142062783, -0.024726288393, 0.177466019988, 0.258272439241, 0.257680982351, -0.190187335014, -0.287919402122, 0.071542896330, 0.030776822940, -0.032982580364, -0.023919090629, 0.206430718303, -0.282312244177, 0.070793770254, -0.217580750585, 0.109813883901, 0.081964246929, -0.069999784231, -0.295995861292, 0.095491297543, -0.072059579194, -0.247848272324, -0.157399907708, 0.242981463671, -0.260273098946, 0.310134828091, -0.036971461028, -0.114972539246, 0.169456914067, -0.047380894423, -0.242703273892, -0.032623682171, -0.226189211011, -0.217134073377, 0.140640884638, -0.081749059260, -0.032723519951, 0.100680232048, -0.082515895367, 0.132312625647, 0.100869104266, -0.108203925192, -0.235719725490, 0.015777006745, -0.206195890903, 0.005314582493, 0.146430879831, 0.299756318331, -0.005292200949, 0.298249393702, 0.149685636163, -0.243700608611, 0.110483348370, 0.125391244888, -0.073238909245, -0.168315678835, 0.165390580893, -0.071495428681, -0.100247785449, 0.169865533710, 0.302683353424, 0.003695582971, -0.250198960304, -0.207683742046, 0.186851382256, -0.028187053278, 0.248693674803, -0.259112924337, 0.089640110731, 0.282250046730, -0.061337180436, -0.273641675711, 0.162615582347, -0.243368342519, -0.075338169932, -0.125385388732, 0.107208706439, -0.234298795462, 0.191972821951, 0.128094807267, 0.305387139320, 0.132670283318, 0.058088056743, -0.051726732403, 0.142781376839, 0.076045572758, 0.172327846289, 0.184887245297, -0.009502084926, 0.267200380564, -0.220193699002, 0.075194507837, 0.228214666247, -0.008763282560, -0.063482880592, 0.158130273223, -0.110042668879, 0.262747585773, 0.192281842232, -0.150277242064, 0.059829033911, 0.241754934192, -0.015034720302, -0.077572435141, 0.201538011432, -0.084682144225, 0.198758840561, 0.286099731922, -0.221902891994, 0.314724922180, -0.309688150883, 0.006460801233, 0.001639754046, 0.119913570583, 0.261059492826, 0.141796365380, -0.146887570620, -0.305958330631, 0.200140163302, 0.139958694577, -0.252163201571, -0.244981855154, -0.180478632450, 0.157287716866, 0.144111558795, -0.140619665384, -0.198778524995, 0.240579292178, -0.010443374515, -0.301536530256, -0.141956299543, 0.225830540061, -0.258746415377, -0.277588278055, -0.013333801180, -0.264337807894, 0.093750864267, -0.020697444677, -0.255346179008, -0.193993330002, 0.217664942145, -0.202172592282, -0.217598110437, -0.064661644399, -0.292979538441, 0.178666546941, 0.279341340065, 0.171516552567, -0.002412606729, -0.076828636229, -0.172838479280, 0.309777528048, -0.222231969237, 0.085621379316, 0.040228646249, 0.103839024901, 0.077481105924, -0.280741482973, -0.151810050011, -0.051084842533, -0.032555300742, -0.099915243685, 0.275393068790, 0.173812389374, -0.295275956392, -0.098454065621, -0.267691195011, 0.045407008380, -0.244262784719, -0.178037136793, 0.184945166111, -0.258113116026, -0.134480983019, -0.196954131126, 0.174572899938, 0.256281107664, 0.059547565877, 0.092271067202, 0.193144142628, 0.266052603722, 0.142394602299, 0.127305030823, 0.091830343008, -0.078724458814, 0.263666778803, 0.271688610315, 0.104578495026, 0.160882577300, 0.266331791878, 0.006003231741, 0.300118327141, 0.131778597832, -0.149291574955, 0.036897953600, 0.148716479540, -0.068833187222, -0.255497783422, 0.173923194408, -0.135721087456, -0.071636222303, -0.096238143742, -0.249999448657, 0.173978671432, -0.129496663809, 0.283740222454, 0.025765122846, -0.147547230124, 0.160403922200, 0.257614016533, 0.249427586794, -0.168670058250, 0.016930166632, -0.123510301113, -0.132551148534, -0.160899877548, 0.081506222486, -0.138940170407, -0.042493660003, 0.317353814840, -0.019957913086, -0.281460255384, 0.220878034830, 0.162943527102, -0.178984314203, 0.236567914486, -0.204518556595, 0.076834201813, 0.278917044401, -0.238956451416, -0.267391145229, 0.003433736973, 0.174029529095, 0.210164323449, 0.144138321280, -0.026509018615, -0.093217380345, -0.239114552736, -0.224520504475, 0.332073688507, -0.207093983889, 0.053258720785, -0.279435336590, 0.113827094436, -0.211119964719, -0.041965097189, 0.176537066698, -0.176213219762, 0.171594098210, -0.113567292690, 0.234270200133, 0.122444793582, -0.209600791335, 0.293577224016, -0.196741163731, 0.213877648115, 0.091170117259, -0.157454088330, -0.259106367826, -0.134936779737, -0.220524773002, -0.098574742675, 0.150798484683, -0.104419469833, -0.039614658803, 0.123007461429, -0.166760370135, -0.034638397396, -0.179754540324, 0.263183921576, 0.219228535891, 0.206120565534, -0.199703350663, -0.021224513650, -0.095105841756, 0.206390470266, -0.068192906678, -0.114378117025, -0.018779447302, -0.265871912241, 0.010342912748, -0.144096374512, -0.292638689280, -0.172932356596, -0.294701278210, 0.122461922467, -0.266813784838, -0.182721585035, 0.048052914441, 0.220614686608, 0.051177792251, 0.025615151972, -0.019720857963, -0.193379342556, -0.217785030603, 0.303576499224, 0.146233230829, 0.134133666754, 0.308957397938, 0.013623706996, -0.313834100962, -0.121499851346, 0.046676788479, 0.111493133008, -0.222932294011, 0.303137838840, 0.102599442005, -0.095850922167, 0.233313977718, -0.149822637439, -0.231509834528, 0.124041482806, 0.273885458708, -0.009227504022, -0.283714950085, -0.070614486933, 0.277524650097, -0.025798508897, 0.206227853894, -0.170203760266, 0.275562793016, -0.062525518239, 0.153652116656, -0.078621692955, -0.297070354223, 0.103606700897, -0.304050028324, -0.007135580759, 0.319709360600, 0.025388881564, 0.067190110683, 0.156614914536, 0.137205034494, -0.111337177455, -0.193539172411, -0.208719760180, 0.030544199049, 0.192938074470, -0.156879350543, 0.242866113782, 0.054145079106, 0.110605195165, 0.185606315732, 0.034437179565, -0.122568175197, -0.110048234463, 0.154882013798, -0.051001768559, 0.113674774766, -0.026910189539, 0.251861244440, 0.226020440459, -0.130272731185, 0.003191140248, -0.219151362777, -0.034263152629, -0.102899774909, 0.218717724085, -0.176504164934, -0.115341171622, 0.217524006963, -0.025398528203, -0.204507216811, 0.161462321877, 0.055336765945, -0.085490085185, -0.107620716095, 0.245511442423, 0.076146408916, -0.019785011187, -0.192675441504, -0.082824595273, 0.194520965219, -0.055159077048, -0.031677648425, -0.225745126605, 0.052925817668, 0.247861355543, -0.190054997802, -0.261411488056, 0.118147075176, 0.008434023708, -0.217657133937, 0.215702906251, 0.300063431263, 0.178588688374, -0.053509965539, -0.078927092254, -0.116013094783, 0.186830118299, -0.042118560523, 0.109510317445, -0.081540189683, -0.012887913734, 0.185790076852, -0.132403358817, 0.150369644165, 0.132918074727, 0.095100685954, -0.276452004910, 0.158824950457, -0.116239629686, -0.296414285898, -0.150063261390, 0.284353762865, -0.209979295731, 0.155685141683, -0.157069295645, -0.018401620910, -0.266726046801, 0.146702349186, -0.162846967578, -0.164699167013, -0.100933715701, -0.116979248822, -0.059912711382, 0.086782060564, 0.139227688313, 0.102029055357, 0.109299376607, -0.068835087121, -0.112168423831, 0.235764607787, 0.169409200549, -0.154788881540, -0.140510261059, 0.072960786521, 0.316179126501, -0.192961052060, -0.145200937986, -0.083171308041, -0.185319617391, 0.100638493896, 0.109472639859, 0.302273184061, 0.083386808634, -0.060750812292, 0.202310487628, -0.071360595524, -0.084776490927, -0.150986552238, -0.153420135379, -0.209198385477, -0.090931288898, 0.035018790513, 0.020334502682, 0.014138909057, 0.090991094708, 0.131483986974, -0.241441696882, -0.219579637051, -0.308889955282, 0.317510545254, 0.140417560935, -0.289741396904, -0.034451931715, 0.194940283895, 0.237174004316, -0.260000377893, -0.068132750690, 0.133014544845, -0.177567988634, -0.127796575427, -0.034018103033, -0.035112559795, 0.307562679052, -0.177771046758, 0.048030126840, 0.177067279816, -0.071075290442, -0.155328050256, 0.219969227910, -0.184297591448, 0.054950267076, -0.133959591389, -0.053259599954, -0.280221611261, 0.307240039110, 0.048478417099, -0.066910676658, -0.121898680925, 0.131092593074, -0.203541427851, 0.270862281322, -0.117383547127, -0.239848822355, 0.046681758016, -0.176786735654, -0.289599239826, -0.296819835901, -0.017167188227, -0.098597168922, 0.190846100450, -0.199967533350, -0.298469007015, 0.033195342869, -0.070020787418, -0.166716188192, 0.013519082218, -0.267383158207, 0.126454725862, -0.063907340169, -0.228653952479, -0.245707288384, 0.237765163183, 0.088501110673, -0.132041662931, 0.073500581086, 0.075588673353, 0.246431335807, 0.030363632366, -0.241336837411, 0.159521639347, 0.247527688742, -0.064722932875, -0.044972412288, 0.000041403779, 0.112432643771, 0.144012361765, -0.283629328012, -0.314472377300, 0.127946630120, 0.196480110288, 0.193892583251, -0.060075897723, 0.047894347459, -0.012129357085, -0.009750590660, 0.298508316278, -0.311405837536, -0.291340082884, 0.065507441759, -0.014978352003, -0.057958994061, 0.161532953382, -0.031970437616, 0.192127630115, -0.282872170210, 0.220924556255, -0.135294020176, -0.100670158863, 0.250350534916, 0.135498151183, 0.149002850056, -0.237730875611, -0.283395081758, 0.005421868525, -0.255774319172, 0.010871004313, -0.315811634064, 0.150093615055, 0.153867721558, 0.102095499635, 0.173732832074, -0.147520765662, 0.055029693991, 0.032983165234, -0.209424272180, -0.012376034632, -0.208503171802, -0.057273052633 };

float bias_7[12] = {-0.0006118399905972183, 0.003990561235696077, -0.007604107726365328, 0.001079855253919959, -0.009083874523639679, -0.011422841809689999, -0.006483389995992184, 0.0043653640896081924, 0.007020308170467615, -0.0022215123753994703, -0.0032327291555702686, 0.0002585284528322518};

float batch_normalization_7_gamma[12] = {0.9815716743469238, 0.9960864782333374, 1.0088759660720825, 1.0001778602600098, 1.0059432983398438, 0.9837687015533447, 0.9793797731399536, 1.0043424367904663, 1.0031782388687134, 1.0113749504089355, 0.9981257915496826, 1.0012638568878174};

float batch_normalization_7_beta[12] = {-0.005572674795985222, 0.00024337772629223764, -0.0034018000587821007, -0.002468404360115528, -0.0026868507266044617, 0.004420183133333921, -0.0012200339697301388, -0.002882522065192461, 0.004347356967628002, -0.0028504047077149153, -0.006737487856298685, 0.009901322424411774};

float batch_normalization_7_mean[12] = {0.20694994926452637, -0.0007481579086743295, 0.6455246210098267, -0.7153818607330322, 0.6716975569725037, -0.16055087745189667, -0.11305467039346695, 0.24516555666923523, -0.2977524995803833, -0.1524643748998642, -0.5046564936637878, -0.20072035491466522};

float batch_normalization_7_variance[12] = {0.4463452994823456, 0.4444946348667145, 1.060400366783142, 0.836732804775238, 0.29478102922439575, 0.5737835764884949, 0.5512711405754089, 0.47769203782081604, 0.5498270988464355, 0.370353639125824, 0.5906974077224731, 0.5471039414405823};

float conv2d_8[864]= { -0.157581895590, -0.047882463783, -0.205708414316, -0.158622294664, -0.109645642340, 0.032951548696, 0.189317271113, 0.122686199844, -0.172736406326, -0.087140642107, -0.179763793945, 0.256584465504, 0.081867747009, 0.260628879070, 0.148905724287, -0.007737831213, -0.052349183708, 0.034846037626, 0.086012020707, 0.202702805400, 0.093351021409, -0.172019526362, 0.065059557557, -0.013051340356, -0.048829138279, -0.120123878121, 0.023232547566, -0.019886638969, -0.035277735442, 0.070607438684, -0.141263186932, 0.124236844480, 0.246894121170, 0.124187171459, -0.020955529064, 0.058174446225, -0.124596141279, -0.187887743115, 0.209719806910, 0.016487834975, 0.109450325370, -0.196915134788, 0.187315315008, -0.185255631804, -0.107168078423, -0.228660881519, -0.161344945431, 0.170591026545, -0.078548818827, 0.245031043887, -0.022760376334, -0.141607910395, 0.040916953236, 0.051944758743, 0.118022270501, -0.257444053888, -0.063529498875, -0.038861624897, -0.052905015647, 0.181359544396, -0.153904765844, -0.047647438943, 0.159542098641, 0.072634831071, -0.200333893299, -0.261923909187, -0.237288162112, 0.177327960730, -0.013479476795, -0.236517235637, -0.028298620135, -0.131279394031, 0.036229725927, 0.036911312491, -0.094473652542, 0.212916076183, -0.139891430736, -0.236808314919, -0.223682075739, -0.192259013653, 0.190134480596, 0.056285094470, -0.117225497961, -0.178040578961, 0.093692831695, -0.195845738053, -0.261982381344, -0.101717889309, -0.055958036333, 0.159188121557, 0.028183866292, 0.051536332816, 0.005861078389, 0.224028974771, 0.083769828081, -0.237057432532, -0.190630614758, -0.252877712250, -0.260679781437, -0.103570483625, -0.147614285350, 0.163088515401, -0.065764009953, -0.238391280174, -0.008163233288, -0.243099704385, 0.030183102936, -0.220634788275, 0.196704447269, -0.205264657736, 0.076689802110, 0.028021601960, 0.157651185989, -0.046032875776, -0.069088436663, 0.245550826192, 0.153606086969, 0.044379342347, 0.186694368720, -0.030384412035, 0.215984493494, 0.116845503449, 0.253860265017, 0.195969372988, 0.007287964690, -0.103646047413, -0.038277052343, -0.215446233749, 0.071374714375, -0.194560736418, 0.054753124714, -0.061520379037, 0.025432279333, 0.128919631243, -0.184135630727, -0.177591249347, -0.115528486669, -0.041625846177, 0.181531026959, -0.221185296774, -0.263320505619, 0.139165759087, 0.081507012248, 0.186082348228, 0.214693635702, -0.066565752029, -0.140895396471, 0.022864611819, -0.039417508990, 0.087752886117, 0.220386922359, 0.098522692919, -0.243635967374, 0.150804862380, 0.164972111583, 0.009392252192, 0.209733739495, -0.136551052332, -0.158815592527, -0.255575150251, 0.190105423331, -0.084724441171, 0.180369392037, -0.164019003510, -0.230196699500, -0.088108807802, 0.125735506415, 0.188672170043, -0.164409086108, 0.017922030762, 0.072672180831, -0.155932173133, 0.133308738470, 0.076951339841, -0.064367860556, -0.009124251083, 0.093042723835, 0.137818634510, -0.218244269490, -0.034442581236, 0.172619983554, 0.009994904511, -0.146946132183, -0.103682108223, -0.133084595203, -0.034985661507, 0.260093152523, 0.193198874593, 0.002800428309, 0.214745432138, 0.235591337085, -0.251667380333, 0.168893069029, 0.125813230872, -0.058126240969, 0.056413549930, -0.228381350636, 0.095550045371, -0.091347023845, -0.244111612439, -0.035443894565, -0.255182027817, -0.046306651086, 0.159755095840, -0.250338792801, 0.203622385859, 0.134310841560, 0.017193840817, -0.052950490266, 0.095299139619, -0.111993633211, 0.131751090288, -0.152391701937, 0.115582183003, -0.116689205170, -0.113283701241, 0.077449135482, 0.025472208858, -0.057625576854, 0.059121884406, 0.215790584683, 0.175170317292, 0.210707530379, 0.099757805467, -0.039921745658, 0.223071753979, -0.202763140202, -0.110941052437, -0.270077347755, -0.168849498034, 0.036945354193, 0.142138108611, -0.018667282537, -0.196286693215, 0.075987227261, 0.076766967773, -0.147414341569, 0.023556044325, -0.221586063504, 0.066950708628, 0.140249773860, 0.145563438535, 0.091674193740, -0.177508339286, -0.076574735343, -0.106414653361, -0.075052477419, -0.044368993491, -0.054370909929, 0.063481472433, -0.131240427494, -0.060895506293, -0.026299851015, 0.007512405980, 0.035611741245, 0.190162569284, 0.150950074196, 0.159904226661, -0.210336849093, -0.240435719490, -0.080810375512, -0.196921229362, -0.119858212769, 0.090494006872, 0.265635490417, 0.238248124719, -0.145530074835, -0.011814635247, -0.182223960757, -0.258863955736, 0.050033137202, 0.105312809348, 0.213132634759, 0.192629545927, -0.029792159796, 0.104929558933, 0.178941205144, 0.132751882076, -0.073136352003, 0.151077166200, -0.123341359198, -0.099583171308, -0.107159875333, -0.264140576124, -0.165065512061, -0.103183507919, -0.027112737298, -0.136698335409, -0.253832727671, 0.109846018255, -0.205501839519, -0.075680874288, -0.061428382993, 0.152464210987, 0.207616284490, -0.006380114239, 0.164920479059, -0.178092852235, 0.009148755111, -0.198767036200, -0.150856226683, 0.223428547382, -0.151980534196, -0.218966037035, -0.037289153785, -0.027674410492, -0.175946131349, 0.038121316582, -0.082977242768, 0.150485381484, 0.056477524340, -0.123242922127, 0.064624801278, 0.128005519509, -0.099727585912, 0.212461262941, 0.192555427551, 0.240378677845, 0.024641072378, -0.044917881489, 0.187572807074, 0.091103509068, 0.210479676723, 0.223487794399, -0.161008223891, 0.096748434007, -0.016157763079, 0.126798927784, -0.186333313584, 0.059645488858, -0.029222406447, 0.197304502130, -0.127040013671, 0.104452364147, 0.248103886843, 0.053652971983, 0.018026310951, 0.232777878642, -0.149320811033, -0.275795757771, -0.231798872352, -0.135507225990, 0.166845947504, -0.007630639710, -0.110047325492, -0.209527313709, 0.187830150127, -0.059570748359, -0.063438966870, 0.069417417049, -0.175936087966, -0.120315648615, 0.140200853348, -0.125099465251, 0.016634764150, 0.161520093679, -0.249940663576, -0.101671718061, -0.237614393234, -0.025454610586, 0.204495847225, 0.220078542829, -0.106688216329, 0.057213030756, 0.042406111956, -0.006828412879, 0.131920129061, -0.151440665126, 0.240608975291, -0.187750458717, -0.090971961617, -0.073597408831, 0.204478800297, 0.242772430182, -0.240833327174, 0.242020279169, -0.150278508663, -0.127602845430, -0.054328326136, -0.127502888441, -0.149584144354, -0.143181324005, 0.194865763187, 0.072205737233, -0.001794312033, 0.207090690732, 0.048909891397, 0.245340764523, 0.072186574340, 0.189585730433, -0.081467196345, -0.145204335451, 0.226629167795, 0.269209861755, 0.227924197912, 0.175929799676, -0.188985839486, 0.208535239100, -0.155917838216, -0.058424472809, 0.241824582219, 0.085691764951, -0.126020923257, 0.058156665415, 0.127050727606, 0.099676169455, -0.050511460751, -0.083340719342, 0.023594284430, -0.236614301801, -0.216459333897, -0.211747407913, 0.055943395942, -0.130790606141, 0.190488368273, -0.072507008910, 0.070443034172, 0.239058196545, 0.122604884207, -0.177517190576, 0.071471251547, 0.113574676216, -0.038862515241, 0.215373352170, 0.228135079145, 0.002356833778, 0.096692197025, -0.107789285481, 0.246950551867, -0.238202363253, 0.233575820923, 0.147985905409, -0.252515077591, 0.016322035342, -0.070325583220, -0.049227107316, -0.087008796632, -0.188248917460, -0.088791206479, 0.130941003561, 0.234372973442, 0.069337695837, -0.166648611426, 0.254391849041, 0.029443619773, -0.223153546453, -0.211967006326, -0.090888842940, 0.152515023947, 0.049020353705, -0.007354442962, -0.220938310027, 0.238471135497, -0.034069854766, 0.135375380516, 0.082677975297, 0.126120626926, 0.262289017439, -0.122333079576, 0.169076174498, -0.127793371677, 0.237002402544, 0.192103594542, -0.174758315086, -0.239351004362, -0.014927229844, 0.206780910492, -0.132596716285, -0.236033618450, 0.022383850068, -0.127308696508, -0.013551541604, -0.211676031351, 0.256612181664, 0.080858528614, -0.122994527221, -0.153626799583, -0.217481091619, -0.204274028540, 0.100633800030, 0.083172962070, 0.082956410944, 0.064592339098, -0.138727575541, -0.117102459073, 0.216306954622, -0.212225317955, 0.229161381721, -0.134008720517, 0.179477438331, 0.026442218572, -0.141425281763, 0.019143091515, 0.014024670236, 0.184655323625, -0.242378011346, 0.229677066207, 0.102766603231, 0.190345704556, 0.110715135932, 0.110637776554, 0.120400749147, -0.116388574243, -0.131631225348, -0.107023023069, 0.089335434139, -0.266316443682, 0.212911114097, 0.144036844373, 0.151966750622, -0.204784169793, -0.038046065718, -0.125477373600, 0.033458087593, 0.172819361091, 0.204175531864, -0.132169827819, -0.034779421985, -0.190510466695, -0.012480863370, 0.103458479047, 0.220037892461, 0.116840042174, -0.084698826075, 0.086263790727, -0.154122963548, -0.072308778763, -0.088201396167, 0.100714772940, -0.109984755516, 0.014533460140, -0.066214233637, -0.128390118480, 0.051060128957, 0.160925149918, 0.196113735437, -0.093971066177, -0.142832741141, -0.034018710256, -0.175020769238, 0.163878917694, 0.250247806311, 0.170689642429, -0.030022535473, -0.242682456970, -0.147236540914, 0.240441247821, 0.011450632475, -0.107085421681, 0.226205646992, 0.236539125443, -0.095560036600, 0.004537511617, 0.190301537514, -0.209200382233, -0.158521592617, -0.084382787347, 0.147495299578, -0.225737467408, -0.106814980507, 0.083008490503, -0.011800252832, 0.095260404050, -0.054576728493, 0.071143560112, -0.069188460708, 0.029078155756, -0.018606195226, 0.193488627672, 0.026884352788, -0.067494004965, 0.136530637741, 0.246346741915, 0.143297895789, -0.213045805693, -0.078309603035, 0.133367657661, -0.223153442144, 0.185991317034, -0.013940822333, -0.220523655415, -0.036041703075, 0.036579862237, 0.005383196753, -0.206747785211, 0.052064135671, -0.256338298321, -0.214067250490, 0.113861210644, 0.110600933433, 0.173515811563, -0.012123970315, -0.141567051411, 0.069832503796, -0.012869902886, -0.161189004779, -0.277307063341, 0.063984885812, -0.152589142323, -0.234582364559, -0.254974424839, -0.144439771771, -0.202614605427, 0.114572741091, -0.213703736663, -0.088290430605, -0.084849484265, 0.165560856462, 0.245334401727, 0.123560063541, -0.087408699095, 0.083400107920, 0.209940761328, -0.049739450216, 0.075385786593, 0.195183262229, 0.154476016760, 0.097616255283, 0.000132572808, -0.168348774314, -0.196981191635, -0.033933371305, -0.170745193958, 0.180861353874, 0.120701484382, -0.004616307095, 0.244869008660, 0.013838849962, -0.216233506799, -0.152253076434, 0.242503821850, 0.214983269572, 0.173508271575, -0.251939892769, -0.136914446950, -0.137606382370, -0.155269622803, 0.150705859065, 0.249208450317, 0.195350199938, -0.017086654902, 0.241378113627, -0.186607718468, -0.129532232881, 0.008912736550, -0.118241406977, -0.068236798048, -0.228165909648, -0.001442735549, -0.056529823691, -0.057016350329, 0.076977483928, -0.254700303078, -0.112011998892, 0.120744511485, -0.051059909165, -0.048459254205, 0.240236923099, -0.063556097448, 0.212546780705, -0.253825008869, 0.096697419882, -0.104184448719, 0.002517305780, 0.027594052255, 0.071014612913, 0.148096710443, 0.122343681753, 0.134717375040, -0.067769996822, -0.166373223066, 0.128020569682, -0.188304021955, 0.113455101848, 0.053899846971, -0.012377137318, 0.187227979302, 0.233689457178, 0.009790671989, 0.228693753481, -0.157536745071, 0.057239077985, -0.199475124478, -0.048150137067, -0.135843217373, -0.032261498272, 0.255959004164, -0.028132781386, 0.233034476638, -0.115116275847, 0.173463985324, -0.164360776544, -0.230057209730, -0.146809279919, 0.169397950172, -0.177340313792, 0.245008334517, -0.034724697471, 0.041804224253, 0.262081623077, -0.060716979206, -0.110307507217, -0.051584828645, -0.211095362902, -0.189015775919, -0.027137905359, -0.161130949855, -0.138945847750, -0.066261574626, -0.203963100910, 0.091959588230, -0.072708442807, 0.166924789548, 0.121237255633, -0.219220027328, -0.119826957583, -0.237711042166, 0.137118771672, -0.102312192321, 0.166275098920, 0.116411335766, -0.258324325085, -0.109851516783, -0.002056643600, 0.125662386417, -0.211694180965, 0.238663598895, 0.023781513795, -0.194652780890, 0.020963372663, -0.165005594492, -0.260382503271, -0.257691740990, -0.153818339109, 0.011673547328, 0.002536390908, -0.237316325307, -0.168977811933, 0.076213143766, 0.270975470543, 0.113253355026, -0.120793342590, -0.143468603492, 0.084228038788, -0.240926861763, 0.224940031767, 0.171211734414, -0.044980078936, -0.073075644672, 0.110437758267, 0.127051934600, 0.072162427008, 0.243378877640, -0.237458989024, -0.017998067662, 0.257322788239, -0.055133249611, -0.154921308160, -0.192554682493, 0.019003899768, 0.120255872607, 0.025195324793, 0.274228155613, 0.113003656268, -0.028181968257, 0.064739897847, -0.248495072126, 0.165593877435, -0.239840850234, -0.047469623387, -0.124260567129, -0.166689664125, -0.104629464447, 0.186858862638, -0.043913327157, -0.163203150034, -0.194369018078, -0.193430930376, -0.225432574749, 0.189151227474, -0.129468694329, 0.126841023564, 0.092732660472, -0.055150631815, -0.014115054160, -0.017461469397, -0.114407479763, -0.004044304602, 0.001738008810, -0.226608321071, -0.066393531859, 0.165865138173, -0.165895551443, 0.082207515836, -0.240570679307, 0.105247668922, -0.157749593258, -0.185561805964, -0.016158191487, 0.190877869725, 0.028447592631, 0.193707734346, 0.066935203969, -0.193632066250, 0.059930413961, -0.260167896748, 0.109538473189, -0.184782326221, -0.188686296344, -0.171488747001, -0.126477524638, -0.038261339068, 0.031549766660, 0.245283067226, 0.188865005970, -0.256791442633, -0.131945282221, 0.129385039210, 0.195501700044, -0.162752360106, -0.035138219595, -0.019609319046, -0.046171359718, 0.028223136440, -0.163952901959, 0.166519448161, 0.218953415751, -0.122697919607, 0.199601396918, 0.193855822086, 0.030833024532, 0.106208592653, 0.098024502397, -0.094177164137, 0.085928343236, 0.107874087989, -0.234140187502, 0.118793137372, -0.219498693943, 0.141034200788, 0.232949435711, -0.212706804276, -0.144126057625, 0.212209448218, -0.101802907884, 0.148573234677, 0.134514421225, -0.087412156165, -0.070488385856, -0.038629237562, 0.260628223419, -0.075925052166, -0.207725852728, -0.071856558323, 0.240850791335, -0.202523127198, -0.034243468195, -0.192894130945, 0.007685544901, -0.135841727257, -0.204811558127, -0.046529684216, -0.244882509112, -0.149153679609 };

float bias_8[72] = {-0.0018882999429479241, -0.0013556190533563495, 0.0016374174738302827, -0.0008713807328604162, -0.00280202878639102, 0.0007472150609828532, -0.005084075964987278, -0.0023994946386665106, 0.004016525577753782, -0.002779391361400485, 0.0012690030271187425, -0.002043218817561865, -0.0024941477458924055, -0.007337265182286501, -0.007094375789165497, -0.003842027625069022, -0.00011311496928101406, -0.0005361873772926629, -0.003484762040898204, 0.0017693749396130443, -0.005185640882700682, -0.003818509867414832, 0.0015700840158388019, 0.0014984362060204148, 0.002961846301332116, 0.0032004863023757935, -0.004276143852621317, -0.0014318447792902589, 0.007603297010064125, 0.0014007579302415252, 0.003402422182261944, -0.0006136168958619237, 0.002445003017783165, 0.00029370017000474036, -0.0026621322613209486, 0.002458654111251235, 0.0036151071544736624, -0.0005108636687509716, -0.0032745376229286194, -0.0008990134228952229, -0.0006422630976885557, 0.00016810672241263092, 0.00025973329320549965, -0.0013636088697239757, -0.005862938705831766, 1.0052359357359819e-05, -0.002649364061653614, -0.00037677749060094357, -0.0015847861068323255, 0.004338032566010952, -0.0021111657842993736, -0.0044333310797810555, -0.002430577762424946, -0.0022816630080342293, -0.003929785918444395, 0.0006452934467233717, -0.009440109133720398, 0.0015418039401993155, -0.0030554449185729027, 0.0011813986347988248, -0.004056284204125404, 0.00536528043448925, 0.00469260523095727, 0.004238331690430641, -0.005599113181233406, -0.0004237178363837302, -0.001018822891637683, 0.0025028337258845568, 0.006111963652074337, 0.0054243034683167934, -0.001601841184310615, 0.0015620029298588634};

float batch_normalization_8_gamma[72] = {0.9853247404098511, 1.0104914903640747, 1.0140775442123413, 1.0006299018859863, 1.0132452249526978, 1.017283320426941, 1.0082663297653198, 0.9925246238708496, 1.0059010982513428, 0.9947487711906433, 1.0009264945983887, 0.9947174787521362, 1.0032010078430176, 0.9966164231300354, 0.9999185800552368, 1.010924220085144, 1.0058364868164062, 1.0046021938323975, 0.992415189743042, 1.00623619556427, 0.9883762001991272, 1.0083855390548706, 1.0104776620864868, 1.011191964149475, 1.0003973245620728, 1.0132055282592773, 1.0069507360458374, 0.9994940161705017, 0.9993436336517334, 0.9942980408668518, 0.9944185018539429, 0.996437132358551, 0.9892629981040955, 0.9993016123771667, 1.0169742107391357, 0.9870805740356445, 0.9979014992713928, 0.9971550107002258, 0.9955024123191833, 0.9924077987670898, 0.9894720315933228, 1.0004887580871582, 0.9957717657089233, 1.0009148120880127, 0.9989160895347595, 0.9908403754234314, 1.0081582069396973, 0.9986957907676697, 1.0073747634887695, 0.9946669340133667, 0.9870791435241699, 0.9958741664886475, 1.0088598728179932, 1.002046823501587, 1.0004756450653076, 0.9861878156661987, 0.9909656047821045, 0.996815025806427, 1.0009554624557495, 1.0007175207138062, 0.9971861243247986, 0.9995227456092834, 0.9903709292411804, 0.9987037777900696, 1.0013121366500854, 1.00068998336792, 0.9795348048210144, 0.9951983690261841, 0.9993701577186584, 1.0104613304138184, 0.9952371120452881, 1.0050933361053467};

float batch_normalization_8_beta[72] = {-0.0002866261638700962, -0.006699279882013798, 0.025289591401815414, 0.012674836441874504, -0.0026830891147255898, 0.006152783520519733, 0.013089263811707497, 0.016491208225488663, 0.007345281541347504, -0.023816805332899094, -0.011441540904343128, -0.01077284011989832, -0.0018407910829409957, -0.0017851742450147867, -0.012601956725120544, -0.0020976352971047163, 0.005692906212061644, 0.004489540588110685, 0.0008969917544163764, -0.0032490966841578484, -0.003650123253464699, 0.008113008923828602, 0.014082755893468857, -0.005967705510556698, 0.00013910708366893232, -0.0036129183135926723, -0.022935668006539345, 0.0023484283592551947, -0.018607301637530327, 0.014616184867918491, 0.00919516384601593, 0.002283392008394003, -0.003122439607977867, 0.004224093165248632, -0.004841388203203678, 0.006008765660226345, 4.723345045931637e-05, 0.003524916246533394, 0.0010846809018403292, 0.01271210890263319, -0.011016461066901684, -0.004971651826053858, -0.010269436053931713, -0.011361008509993553, -0.010614385828375816, 0.004258273169398308, 0.013101558201014996, 0.0033688172698020935, -0.013475107029080391, 0.004997566342353821, 0.00964843388646841, -0.01285366341471672, -0.016406942158937454, 0.007809394970536232, -0.007071628235280514, 0.00548666762188077, 0.00181236257776618, -0.013039964251220226, 0.001091153360903263, 0.011947058141231537, 0.004211095627397299, 0.007460831198841333, 0.012651233933866024, -0.011083959601819515, -0.007733253762125969, -0.010335247032344341, 0.012432797811925411, -0.009746775031089783, 0.000667559914290905, 0.003054711502045393, 0.0005907869199290872, -0.003052669810131192};

float batch_normalization_8_mean[72] = {0.0031663449481129646, -0.0023166555911302567, 0.003490741364657879, 0.001098613254725933, 0.0008278239984065294, -0.0005321751814335585, -0.00558902882039547, -0.00467906566336751, 0.006337425671517849, -0.006517417263239622, -0.0012167248642072082, -0.0007449508993886411, -0.005884247832000256, -0.007685334887355566, -0.004827188793569803, -0.00941995158791542, 0.0033267135731875896, -0.0005795499891974032, -0.004758155904710293, 0.0030444839503616095, -0.0059773875400424, -0.0010679139522835612, 0.0012127280933782458, -0.0004290210781618953, 0.005108651239424944, 0.0028723450377583504, -0.002800869522616267, -0.0025140419602394104, 0.006878919433802366, 0.001788356457836926, 0.004081102553755045, -0.001994088292121887, 0.003355741733685136, 0.0015938363503664732, -0.005297905765473843, 0.002898307517170906, 0.008997173979878426, 0.0017314930446445942, -0.006000969558954239, 0.005195232108235359, -0.0027672674041241407, -0.001063887495547533, 0.002065401989966631, 0.0012514274567365646, -0.008004886098206043, -0.005310795735567808, -0.0008578833658248186, -0.0002617769641801715, -0.004045403562486172, 0.0016865436919033527, 0.0016332881059497595, -0.003730153199285269, -0.0039596459828317165, -0.0023882430978119373, -0.0020933228079229593, 0.005236223805695772, -0.008668019436299801, -0.002847037510946393, -0.0058707306161522865, 0.002933225827291608, -0.008413528092205524, 0.008349204435944557, 0.010312159545719624, 0.007236945908516645, 0.001331046223640442, 0.0030689730774611235, -0.003175656544044614, -0.00214571226388216, 0.0027490120846778154, 0.004351210780441761, -0.0046772402711212635, 0.0014522676356136799};

float batch_normalization_8_variance[72] = {0.5298211574554443, 0.16776210069656372, 0.1348017007112503, 0.37594136595726013, 0.1588120013475418, 0.2537558674812317, 0.3058715760707855, 0.16776861250400543, 0.4963586628437042, 0.3602078855037689, 0.33232104778289795, 0.23357021808624268, 0.15731224417686462, 0.2968132793903351, 0.13202093541622162, 0.2799193561077118, 0.3335425555706024, 0.2651929259300232, 0.1303141713142395, 0.28659409284591675, 0.1527583748102188, 0.243596613407135, 0.2721424698829651, 0.2490236461162567, 0.40276849269866943, 0.275722861289978, 0.4927382469177246, 0.26203495264053345, 0.3800429105758667, 0.427490770816803, 0.3080117404460907, 0.36512139439582825, 0.6770591139793396, 0.2318367213010788, 0.2710452377796173, 0.40769848227500916, 0.20438669621944427, 0.2841549813747406, 0.336862713098526, 0.6618486046791077, 0.2835169732570648, 0.2993677258491516, 0.41345083713531494, 0.2567596733570099, 0.21994343400001526, 0.3684518039226532, 0.24505670368671417, 0.18904073536396027, 0.31004786491394043, 0.1994740217924118, 0.21570050716400146, 0.17725898325443268, 0.375090092420578, 0.2474467009305954, 0.1864112764596939, 0.22432871162891388, 0.3249054551124573, 0.29594141244888306, 0.1917744129896164, 0.2655133605003357, 0.4096828103065491, 0.2779679298400879, 0.2795981466770172, 0.2928534746170044, 0.5802817940711975, 0.12024688720703125, 0.29020601511001587, 0.39544758200645447, 0.23011966049671173, 0.1420658975839615, 0.32901379466056824, 0.43244022130966187};

float conv2d_9 [504]= { -0.061078492552, -0.042599644512, 0.100385203958, -0.068582110107, 0.063824005425, 0.085439458489, 0.023737698793, 0.050220940262, -0.051434513181, 0.025814497843, 0.028137674555, -0.086871869862, -0.084030129015, -0.082441747189, 0.114368930459, -0.049374509603, -0.055334784091, -0.082295365632, -0.066049732268, 0.028919449076, 0.036754816771, 0.015774017200, -0.079367756844, -0.058873943985, -0.079213581979, 0.044064980000, 0.007639450487, 0.012237409130, -0.059627134353, -0.028373882174, 0.086328126490, -0.089019298553, -0.027809798717, 0.022465141490, -0.041040472686, 0.053756538779, 0.035251196474, 0.023308694363, -0.007713663392, 0.049224060029, 0.048549558967, -0.036959815770, -0.084047086537, 0.029878098518, -0.094354212284, 0.080586574972, -0.089141160250, -0.035565055907, -0.074783712626, -0.102092958987, 0.050466202199, 0.044438485056, -0.106433980167, -0.039933383465, -0.080562211573, -0.045537285507, 0.056186191738, 0.049899872392, -0.096858099103, -0.006872655358, -0.026998411864, 0.022614009678, 0.011329215020, -0.019159194082, -0.036768261343, 0.047135531902, 0.093483313918, -0.009273243137, 0.077879816294, 0.023748027161, -0.036433514208, -0.042058642954, 0.069397382438, 0.001200419967, 0.094551190734, -0.073125079274, 0.069942809641, -0.057259749621, 0.016618253663, -0.082433104515, 0.090970471501, 0.072696648538, -0.059755310416, -0.092805743217, 0.072850264609, -0.008122579195, 0.062042325735, 0.039131067693, -0.055731829256, -0.113932758570, -0.052220433950, 0.058407291770, -0.048611570150, -0.102309212089, 0.115493722260, 0.105414941907, 0.055623777211, 0.008348871022, 0.050046131015, -0.056898329407, 0.008859592490, -0.031451206654, 0.018052563071, 0.060225676745, -0.072476960719, -0.019771920517, 0.072395533323, -0.052796751261, -0.008974252269, 0.067447386682, -0.050556045026, -0.022440409288, 0.037575319409, -0.090974830091, -0.100245296955, -0.034518513829, 0.027897393331, 0.057104516774, 0.060532007366, -0.092627339065, 0.005377050024, -0.071900948882, -0.055385421962, -0.000049745086, 0.023345787078, 0.098583243787, 0.092519082129, -0.015730047598, -0.077265724540, -0.016924764961, 0.001483329106, 0.064123138785, 0.056894075125, 0.111250162125, -0.066864266992, -0.011756383814, -0.067369438708, 0.069853588939, -0.092467941344, 0.094490788877, -0.032882001251, 0.092124648392, 0.048462338746, 0.094679668546, 0.046083483845, -0.038022678345, 0.066832788289, 0.038221731782, 0.025961350650, -0.089694343507, -0.080327719450, 0.010341688991, 0.057231128216, -0.101192928851, 0.020638024434, 0.074280492961, 0.060184821486, -0.091664463282, 0.044763255864, -0.049136456102, -0.077171511948, -0.010239006951, 0.088738717139, 0.090884283185, 0.072838336229, 0.066349543631, 0.051588509232, 0.082521632314, -0.064295232296, 0.093365497887, 0.041061457247, -0.054351340979, 0.059225786477, 0.085195206106, 0.070577077568, 0.029555501416, 0.110038869083, -0.073561906815, -0.034153439105, -0.018879517913, 0.055980153382, -0.055383965373, -0.016621287912, -0.030115863308, -0.028485124931, 0.080418102443, -0.041433271021, 0.076431773603, 0.063830047846, -0.036519125104, -0.034557707608, 0.031221428886, -0.106697812676, -0.012075280771, 0.032071694732, 0.060920469463, -0.051514051855, -0.095282897353, 0.036771301180, 0.042864494026, 0.055372286588, 0.034662023187, 0.048649255186, 0.031722702086, 0.035812087357, -0.055238831788, -0.015295304358, 0.084713980556, 0.044635020196, -0.020369360223, 0.018763717264, -0.050987858325, 0.035345848650, -0.060806021094, -0.028331965208, -0.020790645853, -0.095395170152, -0.049222357571, 0.005913152825, 0.098695926368, -0.020100172609, -0.028063520789, -0.006271425635, -0.037082120776, -0.089634522796, -0.038382753730, -0.130149602890, -0.045206166804, -0.107566937804, -0.075300730765, -0.075846172869, 0.061231926084, 0.033529564738, 0.055845428258, -0.015247109346, -0.043433401734, 0.049134954810, 0.087652169168, -0.060516428202, -0.036735609174, 0.074037350714, 0.036657799035, 0.044827051461, 0.042251631618, -0.025361940265, -0.052328184247, -0.001989752054, -0.094023488462, 0.089921124279, -0.013241481967, 0.080368109047, 0.010504974052, 0.046301819384, 0.036019630730, 0.037979569286, -0.006693932228, -0.012617756613, 0.025382939726, -0.105482250452, -0.029965717345, -0.014843909070, -0.009459801018, -0.040390435606, 0.040147572756, 0.060066908598, -0.108287364244, -0.057316184044, 0.007892272435, -0.015546296723, -0.032722868025, 0.017045961693, -0.009497983381, -0.090758614242, 0.084191814065, 0.018552837893, -0.090420410037, -0.023161951452, 0.017808720469, -0.046907864511, 0.066888310015, 0.070070430636, -0.054582569748, -0.010225649923, 0.038352057338, -0.110933251679, -0.106209501624, 0.082396879792, -0.033679224551, 0.037699356675, 0.001649566460, 0.103804752231, -0.015318249352, 0.047367945313, -0.013342615217, 0.046037178487, -0.045336559415, -0.042108137161, -0.082376167178, 0.098103597760, 0.021579094231, -0.030515411869, 0.062129333615, 0.005887612700, -0.028647642583, 0.075574673712, -0.030016684905, -0.039790797979, -0.054892040789, 0.005554477219, -0.086310222745, -0.086783356965, 0.014019872993, -0.046172350645, 0.077125795186, -0.117133535445, 0.057210553437, 0.059378560632, -0.032527137548, 0.080179370940, -0.016766710207, 0.034539256245, 0.075017414987, 0.009965544567, 0.041765589267, -0.015408881009, -0.055666156113, 0.063641257584, -0.007529655006, -0.081425003707, -0.112806655467, -0.098131678998, 0.034022960812, 0.087873399258, 0.060458019376, -0.091346852481, -0.045862428844, -0.034117184579, -0.024338677526, 0.042507167906, -0.030664052814, 0.106658592820, -0.036538589746, 0.094355307519, -0.004256385844, 0.067213118076, -0.087051436305, -0.049568045884, 0.047472666949, 0.011414274573, 0.036006454378, 0.020450266078, -0.054608240724, -0.097500711679, -0.059611633420, 0.084342308342, 0.063581682742, 0.112355746329, 0.012646974996, 0.104649782181, -0.000708048814, -0.031410068274, 0.073033213615, 0.081645146012, -0.025727633387, 0.098345212638, 0.051792901009, -0.023613324389, -0.064413547516, 0.026054263115, -0.010833824985, 0.074217386544, 0.000409399072, 0.070076003671, -0.069704003632, -0.067426003516, 0.082036115229, -0.011497736908, 0.013310920447, 0.021045878530, 0.116523906589, 0.013205625117, 0.061439499259, -0.089820489287, 0.006475416943, 0.020629307255, -0.104628786445, 0.099109813571, 0.029092393816, 0.100214466453, -0.069012343884, -0.079443022609, 0.034402210265, 0.014972800389, 0.043401684612, -0.086202718318, 0.035099908710, -0.076275713742, 0.015612361021, -0.095043644309, 0.014114800841, 0.065241716802, 0.002020231681, 0.094376169145, -0.076617270708, 0.109451793134, 0.067895531654, -0.079637676477, 0.092548713088, -0.088559769094, -0.014004533179, 0.029951879755, -0.023578384891, -0.041701920331, -0.065429747105, -0.062089122832, -0.065822869539, -0.058229513466, -0.088739491999, -0.064575284719, 0.094794876873, -0.101355947554, 0.065615177155, -0.038971018046, 0.056354500353, 0.011280754581, 0.068210966885, 0.095940999687, -0.001003495418, -0.033329579979, 0.066507354379, -0.045944318175, 0.080291926861, 0.058321900666, 0.013618474826, -0.014875517227, -0.081542551517, 0.019126813859, -0.029123090208, -0.001718002139, -0.033431403339, -0.116636551917, -0.094209060073, -0.030175108463, -0.053370598704, -0.089730858803, -0.020990880206, -0.088817358017, 0.056655116379, -0.091811396182, 0.064679116011, 0.001974894665, 0.051272694021, -0.062691316009, -0.063513368368, 0.035493902862, 0.111986622214, -0.075981974602, -0.087947562337, -0.004788748454, -0.036919176579, -0.095608331263, 0.110522754490, 0.080331407487, 0.046866837889, 0.039798941463, -0.007995282300, -0.083263501525, 0.100414663553, -0.017836250365, -0.001060101902, -0.049128759652, 0.082074448466, -0.051457565278, -0.002975196345, 0.079513497651, 0.028213255107, 0.078129611909, -0.052977900952, -0.055631842464, 0.045037131757, -0.053592108190, -0.108775973320, 0.103038854897, -0.030429041013, -0.005937664770, 0.010350239463, -0.053696800023, 0.028583269566, -0.041264634579, -0.012958963402, 0.001767747453, -0.039990723133, -0.007488673553, 0.028174960986, 0.088840290904, 0.117300882936, -0.018074249849, -0.094601936638, -0.060166865587, 0.083101660013, 0.070600636303, -0.109866991639, 0.011303300038, 0.002541525057 };

float bias_9[72] = {0.004349217284470797, 0.005103129427880049, 0.0012302398681640625, -0.008769729174673557, 0.0006451698718592525, -0.0031768623739480972, 0.008349982090294361, -0.005681282840669155, 0.009269149973988533, 0.0023716790601611137, 0.00015150154649745673, -0.002562734065577388, -0.001077658380381763, -0.006907004397362471, 0.001528593827970326, -0.005899396259337664, -0.003963886760175228, 0.0042258682660758495, 0.006733233574777842, 0.007452147081494331, -0.00043107933015562594, 0.005986686330288649, 0.003134571248665452, -0.009897987358272076, 0.0045623332262039185, -0.003374984720721841, -0.0029719099402427673, -0.006509223021566868, -0.0010965644614771008, -0.0011996570974588394, -0.006114139687269926, -4.893653567705769e-06, -0.005742751527577639, 0.0018150598043575883, -0.0007199514657258987, 0.00011316576274111867, -0.004964775405824184, -0.0050161536782979965, 0.0034330126363784075, 0.005161644890904427, 0.005532627459615469, 0.004749205429106951, 0.007701505441218615, -0.0025593016762286425, -0.0025180738884955645, 0.005033702589571476, 0.010772792622447014, 0.00034153563319705427, 0.0008318189065903425, -0.004578906111419201, -0.003747134003788233, -3.486473360680975e-05, -0.0057678306475281715, -0.0055335951037704945, 0.007917736656963825, 0.00041773467091843486, 0.002666927408427, -0.008316254243254662, 0.012813598848879337, -0.0021391280461102724, -0.00354155246168375, -0.006579588167369366, -0.0036769770085811615, 0.004271735902875662, 0.007098358124494553, 0.0077531305141747, 0.008544275537133217, -0.007593112997710705, -0.005179342348128557, -0.0010252976790070534, -0.0011148052290081978, -0.00286862812936306};

float batch_normalization_9_gamma[72] = {0.9842468500137329, 1.0118900537490845, 1.0158907175064087, 1.0035957098007202, 1.0143036842346191, 1.01666259765625, 1.009652853012085, 0.9937433004379272, 1.0055052042007446, 1.004799485206604, 0.9963980913162231, 0.98814857006073, 1.003355860710144, 0.9934340119361877, 0.9977366924285889, 1.008284091949463, 1.0061389207839966, 1.000646710395813, 0.9909471273422241, 1.0091381072998047, 0.9897657632827759, 1.0086109638214111, 1.0098997354507446, 1.0107982158660889, 0.9986472129821777, 1.0131865739822388, 1.0085245370864868, 0.9990421533584595, 0.9995880126953125, 0.9962799549102783, 0.9947724938392639, 0.996569037437439, 0.9887973070144653, 1.0040323734283447, 1.0142422914505005, 0.9876503944396973, 0.9966293573379517, 0.9947788715362549, 0.9961325526237488, 0.9936907887458801, 0.9835228323936462, 0.9980995655059814, 0.9959060549736023, 1.0003384351730347, 1.0054457187652588, 0.9875780344009399, 1.0084658861160278, 0.9992492198944092, 1.004548192024231, 0.992300808429718, 0.9878918528556824, 1.0038230419158936, 1.014965534210205, 1.004502534866333, 1.0046354532241821, 0.9854442477226257, 0.999631941318512, 0.9961385130882263, 1.0020450353622437, 1.0024383068084717, 0.996563196182251, 0.9997073411941528, 0.9925687909126282, 1.0009146928787231, 1.0001219511032104, 1.0155353546142578, 0.9798040986061096, 0.9965783953666687, 0.996746838092804, 1.0084309577941895, 0.9971379041671753, 0.9957914352416992};

